digraph Tree {
node [shape=box, style="filled, rounded", color="black", fontname=helvetica] ;
edge [fontname=helvetica] ;
0 [label="keyword <= 1.5\nentropy = 0.7811\nsamples = 25318\nvalue = [5868, 19450]\nclass = 2", fillcolor="#399de5b2"] ;
1 [label="tld <= 2.5\nentropy = 0.6211\nsamples = 18397\nvalue = [2843, 15554]\nclass = 2", fillcolor="#399de5d0"] ;
0 -> 1 [labeldistance=2.5, labelangle=45, headlabel="True"] ;
2 [label="spon_registrar <= 0.5\nentropy = 0.7968\nsamples = 9632\nvalue = [2322, 7310]\nclass = 2", fillcolor="#399de5ae"] ;
1 -> 2 ;
3 [label="tld <= 1.5\nentropy = 0.5149\nsamples = 4738\nvalue = [545, 4193]\nclass = 2", fillcolor="#399de5de"] ;
2 -> 3 ;
4 [label="locate_cmp <= 0.0\nentropy = 0.4951\nsamples = 4538\nvalue = [492, 4046]\nclass = 2", fillcolor="#399de5e0"] ;
3 -> 4 ;
5 [label="email_type <= 6.0\nentropy = 0.5141\nsamples = 4035\nvalue = [463, 3572]\nclass = 2", fillcolor="#399de5de"] ;
4 -> 5 ;
6 [label="entropy = 0.5142\nsamples = 4034\nvalue = [463, 3571]\nclass = 2", fillcolor="#399de5de"] ;
5 -> 6 ;
7 [label="entropy = 0.0\nsamples = 1\nvalue = [0, 1]\nclass = 2", fillcolor="#399de5ff"] ;
5 -> 7 ;
8 [label="email_type <= 6.0\nentropy = 0.3181\nsamples = 503\nvalue = [29, 474]\nclass = 2", fillcolor="#399de5ef"] ;
4 -> 8 ;
9 [label="entropy = 0.3104\nsamples = 502\nvalue = [28, 474]\nclass = 2", fillcolor="#399de5f0"] ;
8 -> 9 ;
10 [label="entropy = 0.0\nsamples = 1\nvalue = [1, 0]\nclass = 1", fillcolor="#e58139ff"] ;
8 -> 10 ;
11 [label="locate_cmp <= 0.0\nentropy = 0.8342\nsamples = 200\nvalue = [53, 147]\nclass = 2", fillcolor="#399de5a3"] ;
3 -> 11 ;
12 [label="entropy = 0.8271\nsamples = 196\nvalue = [51, 145]\nclass = 2", fillcolor="#399de5a5"] ;
11 -> 12 ;
13 [label="entropy = 1.0\nsamples = 4\nvalue = [2, 2]\nclass = 1", fillcolor="#e5813900"] ;
11 -> 13 ;
14 [label="locate_cmp <= 0.0\nentropy = 0.9452\nsamples = 4894\nvalue = [1777, 3117]\nclass = 2", fillcolor="#399de56e"] ;
2 -> 14 ;
15 [label="spon_registrar <= 9.5\nentropy = 0.9964\nsamples = 2365\nvalue = [1099, 1266]\nclass = 2", fillcolor="#399de522"] ;
14 -> 15 ;
16 [label="spon_registrar <= 1.5\nentropy = 0.9662\nsamples = 895\nvalue = [544, 351]\nclass = 1", fillcolor="#e581395a"] ;
15 -> 16 ;
17 [label="entropy = 0.9222\nsamples = 421\nvalue = [279, 142]\nclass = 1", fillcolor="#e581397d"] ;
16 -> 17 ;
18 [label="spon_registrar <= 2.5\nentropy = 0.9899\nsamples = 474\nvalue = [265, 209]\nclass = 1", fillcolor="#e5813936"] ;
16 -> 18 ;
19 [label="entropy = 0.9641\nsamples = 18\nvalue = [7, 11]\nclass = 2", fillcolor="#399de55d"] ;
18 -> 19 ;
20 [label="spon_registrar <= 5.0\nentropy = 0.9875\nsamples = 456\nvalue = [258, 198]\nclass = 1", fillcolor="#e581393b"] ;
18 -> 20 ;
21 [label="email_type <= 6.0\nentropy = 0.9782\nsamples = 346\nvalue = [203, 143]\nclass = 1", fillcolor="#e581394b"] ;
20 -> 21 ;
22 [label="entropy = 0.9825\nsamples = 270\nvalue = [156, 114]\nclass = 1", fillcolor="#e5813945"] ;
21 -> 22 ;
23 [label="entropy = 0.9591\nsamples = 76\nvalue = [47, 29]\nclass = 1", fillcolor="#e5813962"] ;
21 -> 23 ;
24 [label="email_type <= 6.0\nentropy = 1.0\nsamples = 110\nvalue = [55, 55]\nclass = 1", fillcolor="#e5813900"] ;
20 -> 24 ;
25 [label="entropy = 0.9937\nsamples = 64\nvalue = [35, 29]\nclass = 1", fillcolor="#e581392c"] ;
24 -> 25 ;
26 [label="spon_registrar <= 7.5\nentropy = 0.9877\nsamples = 46\nvalue = [20, 26]\nclass = 2", fillcolor="#399de53b"] ;
24 -> 26 ;
27 [label="spon_registrar <= 6.5\nentropy = 0.9972\nsamples = 32\nvalue = [15, 17]\nclass = 2", fillcolor="#399de51e"] ;
26 -> 27 ;
28 [label="entropy = 0.9751\nsamples = 27\nvalue = [11, 16]\nclass = 2", fillcolor="#399de550"] ;
27 -> 28 ;
29 [label="entropy = 0.7219\nsamples = 5\nvalue = [4, 1]\nclass = 1", fillcolor="#e58139bf"] ;
27 -> 29 ;
30 [label="entropy = 0.9403\nsamples = 14\nvalue = [5, 9]\nclass = 2", fillcolor="#399de571"] ;
26 -> 30 ;
31 [label="spon_registrar <= 11.5\nentropy = 0.9563\nsamples = 1470\nvalue = [555, 915]\nclass = 2", fillcolor="#399de564"] ;
15 -> 31 ;
32 [label="spon_registrar <= 10.5\nentropy = 0.5325\nsamples = 289\nvalue = [35, 254]\nclass = 2", fillcolor="#399de5dc"] ;
31 -> 32 ;
33 [label="email_type <= 6.0\nentropy = 0.5397\nsamples = 275\nvalue = [34, 241]\nclass = 2", fillcolor="#399de5db"] ;
32 -> 33 ;
34 [label="entropy = 0.65\nsamples = 6\nvalue = [1, 5]\nclass = 2", fillcolor="#399de5cc"] ;
33 -> 34 ;
35 [label="entropy = 0.537\nsamples = 269\nvalue = [33, 236]\nclass = 2", fillcolor="#399de5db"] ;
33 -> 35 ;
36 [label="entropy = 0.3712\nsamples = 14\nvalue = [1, 13]\nclass = 2", fillcolor="#399de5eb"] ;
32 -> 36 ;
37 [label="tld <= 1.5\nentropy = 0.9897\nsamples = 1181\nvalue = [520, 661]\nclass = 2", fillcolor="#399de536"] ;
31 -> 37 ;
38 [label="email_type <= 6.0\nentropy = 0.9585\nsamples = 289\nvalue = [110, 179]\nclass = 2", fillcolor="#399de562"] ;
37 -> 38 ;
39 [label="entropy = 0.9982\nsamples = 40\nvalue = [19, 21]\nclass = 2", fillcolor="#399de518"] ;
38 -> 39 ;
40 [label="entropy = 0.9471\nsamples = 249\nvalue = [91, 158]\nclass = 2", fillcolor="#399de56c"] ;
38 -> 40 ;
41 [label="entropy = 0.9953\nsamples = 892\nvalue = [410, 482]\nclass = 2", fillcolor="#399de526"] ;
37 -> 41 ;
42 [label="tld <= 1.5\nentropy = 0.8387\nsamples = 2529\nvalue = [678, 1851]\nclass = 2", fillcolor="#399de5a2"] ;
14 -> 42 ;
43 [label="spon_registrar <= 7.5\nentropy = 0.8266\nsamples = 2493\nvalue = [648, 1845]\nclass = 2", fillcolor="#399de5a5"] ;
42 -> 43 ;
44 [label="spon_registrar <= 6.5\nentropy = 0.8553\nsamples = 1272\nvalue = [356, 916]\nclass = 2", fillcolor="#399de59c"] ;
43 -> 44 ;
45 [label="spon_registrar <= 3.5\nentropy = 0.8275\nsamples = 1167\nvalue = [304, 863]\nclass = 2", fillcolor="#399de5a5"] ;
44 -> 45 ;
46 [label="spon_registrar <= 1.5\nentropy = 0.7952\nsamples = 783\nvalue = [188, 595]\nclass = 2", fillcolor="#399de5ae"] ;
45 -> 46 ;
47 [label="entropy = 0.9038\nsamples = 72\nvalue = [23, 49]\nclass = 2", fillcolor="#399de587"] ;
46 -> 47 ;
48 [label="spon_registrar <= 2.5\nentropy = 0.7816\nsamples = 711\nvalue = [165, 546]\nclass = 2", fillcolor="#399de5b2"] ;
46 -> 48 ;
49 [label="email_type <= 6.0\nentropy = 0.7833\nsamples = 708\nvalue = [165, 543]\nclass = 2", fillcolor="#399de5b2"] ;
48 -> 49 ;
50 [label="entropy = 0.0\nsamples = 2\nvalue = [2, 0]\nclass = 1", fillcolor="#e58139ff"] ;
49 -> 50 ;
51 [label="entropy = 0.7795\nsamples = 706\nvalue = [163, 543]\nclass = 2", fillcolor="#399de5b2"] ;
49 -> 51 ;
52 [label="entropy = 0.0\nsamples = 3\nvalue = [0, 3]\nclass = 2", fillcolor="#399de5ff"] ;
48 -> 52 ;
53 [label="spon_registrar <= 5.0\nentropy = 0.8838\nsamples = 384\nvalue = [116, 268]\nclass = 2", fillcolor="#399de591"] ;
45 -> 53 ;
54 [label="entropy = 0.9087\nsamples = 179\nvalue = [58, 121]\nclass = 2", fillcolor="#399de585"] ;
53 -> 54 ;
55 [label="entropy = 0.8594\nsamples = 205\nvalue = [58, 147]\nclass = 2", fillcolor="#399de59a"] ;
53 -> 55 ;
56 [label="entropy = 0.9999\nsamples = 105\nvalue = [52, 53]\nclass = 2", fillcolor="#399de505"] ;
44 -> 56 ;
57 [label="spon_registrar <= 11.5\nentropy = 0.7936\nsamples = 1221\nvalue = [292, 929]\nclass = 2", fillcolor="#399de5af"] ;
43 -> 57 ;
58 [label="spon_registrar <= 8.5\nentropy = 0.6021\nsamples = 422\nvalue = [62, 360]\nclass = 2", fillcolor="#399de5d3"] ;
57 -> 58 ;
59 [label="entropy = 0.7543\nsamples = 143\nvalue = [31, 112]\nclass = 2", fillcolor="#399de5b8"] ;
58 -> 59 ;
60 [label="email_type <= 6.0\nentropy = 0.5033\nsamples = 279\nvalue = [31, 248]\nclass = 2", fillcolor="#399de5df"] ;
58 -> 60 ;
61 [label="entropy = 0.0\nsamples = 3\nvalue = [0, 3]\nclass = 2", fillcolor="#399de5ff"] ;
60 -> 61 ;
62 [label="spon_registrar <= 10.5\nentropy = 0.5069\nsamples = 276\nvalue = [31, 245]\nclass = 2", fillcolor="#399de5df"] ;
60 -> 62 ;
63 [label="entropy = 0.469\nsamples = 110\nvalue = [11, 99]\nclass = 2", fillcolor="#399de5e3"] ;
62 -> 63 ;
64 [label="entropy = 0.5307\nsamples = 166\nvalue = [20, 146]\nclass = 2", fillcolor="#399de5dc"] ;
62 -> 64 ;
65 [label="entropy = 0.8659\nsamples = 799\nvalue = [230, 569]\nclass = 2", fillcolor="#399de598"] ;
57 -> 65 ;
66 [label="entropy = 0.65\nsamples = 36\nvalue = [30, 6]\nclass = 1", fillcolor="#e58139cc"] ;
42 -> 66 ;
67 [label="tld <= 3.5\nentropy = 0.3252\nsamples = 8765\nvalue = [521, 8244]\nclass = 2", fillcolor="#399de5ef"] ;
1 -> 67 ;
68 [label="spon_registrar <= 9.0\nentropy = 0.1107\nsamples = 6724\nvalue = [99, 6625]\nclass = 2", fillcolor="#399de5fb"] ;
67 -> 68 ;
69 [label="spon_registrar <= 0.5\nentropy = 0.0803\nsamples = 6547\nvalue = [65, 6482]\nclass = 2", fillcolor="#399de5fc"] ;
68 -> 69 ;
70 [label="locate_cmp <= 0.0\nentropy = 0.1698\nsamples = 793\nvalue = [20, 773]\nclass = 2", fillcolor="#399de5f8"] ;
69 -> 70 ;
71 [label="entropy = 0.1765\nsamples = 717\nvalue = [19, 698]\nclass = 2", fillcolor="#399de5f8"] ;
70 -> 71 ;
72 [label="entropy = 0.1011\nsamples = 76\nvalue = [1, 75]\nclass = 2", fillcolor="#399de5fc"] ;
70 -> 72 ;
73 [label="spon_registrar <= 1.5\nentropy = 0.066\nsamples = 5754\nvalue = [45, 5709]\nclass = 2", fillcolor="#399de5fd"] ;
69 -> 73 ;
74 [label="locate_cmp <= 0.0\nentropy = 0.0275\nsamples = 2534\nvalue = [7, 2527]\nclass = 2", fillcolor="#399de5fe"] ;
73 -> 74 ;
75 [label="email_type <= 6.0\nentropy = 0.0304\nsamples = 2253\nvalue = [7, 2246]\nclass = 2", fillcolor="#399de5fe"] ;
74 -> 75 ;
76 [label="entropy = 0.0\nsamples = 9\nvalue = [0, 9]\nclass = 2", fillcolor="#399de5ff"] ;
75 -> 76 ;
77 [label="entropy = 0.0305\nsamples = 2244\nvalue = [7, 2237]\nclass = 2", fillcolor="#399de5fe"] ;
75 -> 77 ;
78 [label="entropy = 0.0\nsamples = 281\nvalue = [0, 281]\nclass = 2", fillcolor="#399de5ff"] ;
74 -> 78 ;
79 [label="spon_registrar <= 7.5\nentropy = 0.0925\nsamples = 3220\nvalue = [38, 3182]\nclass = 2", fillcolor="#399de5fc"] ;
73 -> 79 ;
80 [label="spon_registrar <= 6.5\nentropy = 0.1262\nsamples = 1961\nvalue = [34, 1927]\nclass = 2", fillcolor="#399de5fb"] ;
79 -> 80 ;
81 [label="locate_cmp <= 0.0\nentropy = 0.0991\nsamples = 1868\nvalue = [24, 1844]\nclass = 2", fillcolor="#399de5fc"] ;
80 -> 81 ;
82 [label="spon_registrar <= 3.0\nentropy = 0.5436\nsamples = 24\nvalue = [3, 21]\nclass = 2", fillcolor="#399de5db"] ;
81 -> 82 ;
83 [label="entropy = 0.0\nsamples = 4\nvalue = [0, 4]\nclass = 2", fillcolor="#399de5ff"] ;
82 -> 83 ;
84 [label="entropy = 0.6098\nsamples = 20\nvalue = [3, 17]\nclass = 2", fillcolor="#399de5d2"] ;
82 -> 84 ;
85 [label="spon_registrar <= 3.0\nentropy = 0.0899\nsamples = 1844\nvalue = [21, 1823]\nclass = 2", fillcolor="#399de5fc"] ;
81 -> 85 ;
86 [label="entropy = 0.1089\nsamples = 1247\nvalue = [18, 1229]\nclass = 2", fillcolor="#399de5fb"] ;
85 -> 86 ;
87 [label="spon_registrar <= 5.0\nentropy = 0.0456\nsamples = 597\nvalue = [3, 594]\nclass = 2", fillcolor="#399de5fe"] ;
85 -> 87 ;
88 [label="entropy = 0.0\nsamples = 259\nvalue = [0, 259]\nclass = 2", fillcolor="#399de5ff"] ;
87 -> 88 ;
89 [label="entropy = 0.0732\nsamples = 338\nvalue = [3, 335]\nclass = 2", fillcolor="#399de5fd"] ;
87 -> 89 ;
90 [label="locate_cmp <= 0.0\nentropy = 0.4924\nsamples = 93\nvalue = [10, 83]\nclass = 2", fillcolor="#399de5e0"] ;
80 -> 90 ;
91 [label="entropy = 0.0\nsamples = 1\nvalue = [1, 0]\nclass = 1", fillcolor="#e58139ff"] ;
90 -> 91 ;
92 [label="entropy = 0.4621\nsamples = 92\nvalue = [9, 83]\nclass = 2", fillcolor="#399de5e3"] ;
90 -> 92 ;
93 [label="entropy = 0.0309\nsamples = 1259\nvalue = [4, 1255]\nclass = 2", fillcolor="#399de5fe"] ;
79 -> 93 ;
94 [label="email_type <= 6.0\nentropy = 0.7058\nsamples = 177\nvalue = [34, 143]\nclass = 2", fillcolor="#399de5c2"] ;
68 -> 94 ;
95 [label="entropy = 0.9183\nsamples = 18\nvalue = [12, 6]\nclass = 1", fillcolor="#e581397f"] ;
94 -> 95 ;
96 [label="locate_cmp <= 0.0\nentropy = 0.5799\nsamples = 159\nvalue = [22, 137]\nclass = 2", fillcolor="#399de5d6"] ;
94 -> 96 ;
97 [label="spon_registrar <= 11.5\nentropy = 0.874\nsamples = 17\nvalue = [5, 12]\nclass = 2", fillcolor="#399de595"] ;
96 -> 97 ;
98 [label="spon_registrar <= 10.5\nentropy = 0.9852\nsamples = 7\nvalue = [3, 4]\nclass = 2", fillcolor="#399de540"] ;
97 -> 98 ;
99 [label="entropy = 1.0\nsamples = 4\nvalue = [2, 2]\nclass = 1", fillcolor="#e5813900"] ;
98 -> 99 ;
100 [label="entropy = 0.9183\nsamples = 3\nvalue = [1, 2]\nclass = 2", fillcolor="#399de57f"] ;
98 -> 100 ;
101 [label="entropy = 0.7219\nsamples = 10\nvalue = [2, 8]\nclass = 2", fillcolor="#399de5bf"] ;
97 -> 101 ;
102 [label="spon_registrar <= 11.5\nentropy = 0.5286\nsamples = 142\nvalue = [17, 125]\nclass = 2", fillcolor="#399de5dc"] ;
96 -> 102 ;
103 [label="entropy = 0.0\nsamples = 2\nvalue = [0, 2]\nclass = 2", fillcolor="#399de5ff"] ;
102 -> 103 ;
104 [label="entropy = 0.5335\nsamples = 140\nvalue = [17, 123]\nclass = 2", fillcolor="#399de5dc"] ;
102 -> 104 ;
105 [label="tld <= 8.5\nentropy = 0.7352\nsamples = 2041\nvalue = [422, 1619]\nclass = 2", fillcolor="#399de5bd"] ;
67 -> 105 ;
106 [label="spon_registrar <= 0.5\nentropy = 0.9833\nsamples = 712\nvalue = [410, 302]\nclass = 1", fillcolor="#e5813943"] ;
105 -> 106 ;
107 [label="tld <= 5.5\nentropy = 0.9858\nsamples = 207\nvalue = [89, 118]\nclass = 2", fillcolor="#399de53f"] ;
106 -> 107 ;
108 [label="tld <= 4.5\nentropy = 0.9999\nsamples = 162\nvalue = [82, 80]\nclass = 1", fillcolor="#e5813906"] ;
107 -> 108 ;
109 [label="locate_cmp <= 0.0\nentropy = 0.9988\nsamples = 148\nvalue = [71, 77]\nclass = 2", fillcolor="#399de514"] ;
108 -> 109 ;
110 [label="entropy = 0.9998\nsamples = 134\nvalue = [66, 68]\nclass = 2", fillcolor="#399de508"] ;
109 -> 110 ;
111 [label="entropy = 0.9403\nsamples = 14\nvalue = [5, 9]\nclass = 2", fillcolor="#399de571"] ;
109 -> 111 ;
112 [label="locate_cmp <= 0.0\nentropy = 0.7496\nsamples = 14\nvalue = [11, 3]\nclass = 1", fillcolor="#e58139b9"] ;
108 -> 112 ;
113 [label="entropy = 0.7642\nsamples = 9\nvalue = [7, 2]\nclass = 1", fillcolor="#e58139b6"] ;
112 -> 113 ;
114 [label="entropy = 0.7219\nsamples = 5\nvalue = [4, 1]\nclass = 1", fillcolor="#e58139bf"] ;
112 -> 114 ;
115 [label="tld <= 6.5\nentropy = 0.6236\nsamples = 45\nvalue = [7, 38]\nclass = 2", fillcolor="#399de5d0"] ;
107 -> 115 ;
116 [label="locate_cmp <= 0.0\nentropy = 0.2975\nsamples = 38\nvalue = [2, 36]\nclass = 2", fillcolor="#399de5f1"] ;
115 -> 116 ;
117 [label="entropy = 0.3034\nsamples = 37\nvalue = [2, 35]\nclass = 2", fillcolor="#399de5f0"] ;
116 -> 117 ;
118 [label="entropy = 0.0\nsamples = 1\nvalue = [0, 1]\nclass = 2", fillcolor="#399de5ff"] ;
116 -> 118 ;
119 [label="tld <= 7.5\nentropy = 0.8631\nsamples = 7\nvalue = [5, 2]\nclass = 1", fillcolor="#e5813999"] ;
115 -> 119 ;
120 [label="entropy = 0.8113\nsamples = 4\nvalue = [3, 1]\nclass = 1", fillcolor="#e58139aa"] ;
119 -> 120 ;
121 [label="entropy = 0.9183\nsamples = 3\nvalue = [2, 1]\nclass = 1", fillcolor="#e581397f"] ;
119 -> 121 ;
122 [label="spon_registrar <= 1.5\nentropy = 0.9462\nsamples = 505\nvalue = [321, 184]\nclass = 1", fillcolor="#e581396d"] ;
106 -> 122 ;
123 [label="locate_cmp <= 0.0\nentropy = 0.6429\nsamples = 55\nvalue = [46, 9]\nclass = 1", fillcolor="#e58139cd"] ;
122 -> 123 ;
124 [label="tld <= 5.5\nentropy = 0.6122\nsamples = 53\nvalue = [45, 8]\nclass = 1", fillcolor="#e58139d2"] ;
123 -> 124 ;
125 [label="entropy = 0.6268\nsamples = 51\nvalue = [43, 8]\nclass = 1", fillcolor="#e58139d0"] ;
124 -> 125 ;
126 [label="entropy = 0.0\nsamples = 2\nvalue = [2, 0]\nclass = 1", fillcolor="#e58139ff"] ;
124 -> 126 ;
127 [label="entropy = 1.0\nsamples = 2\nvalue = [1, 1]\nclass = 1", fillcolor="#e5813900"] ;
123 -> 127 ;
128 [label="spon_registrar <= 10.5\nentropy = 0.9641\nsamples = 450\nvalue = [275, 175]\nclass = 1", fillcolor="#e581395d"] ;
122 -> 128 ;
129 [label="email_type <= 6.0\nentropy = 0.9959\nsamples = 225\nvalue = [121, 104]\nclass = 1", fillcolor="#e5813924"] ;
128 -> 129 ;
130 [label="spon_registrar <= 2.5\nentropy = 0.7383\nsamples = 48\nvalue = [38, 10]\nclass = 1", fillcolor="#e58139bc"] ;
129 -> 130 ;
131 [label="entropy = 0.0\nsamples = 1\nvalue = [1, 0]\nclass = 1", fillcolor="#e58139ff"] ;
130 -> 131 ;
132 [label="spon_registrar <= 6.0\nentropy = 0.7467\nsamples = 47\nvalue = [37, 10]\nclass = 1", fillcolor="#e58139ba"] ;
130 -> 132 ;
133 [label="entropy = 0.7107\nsamples = 36\nvalue = [29, 7]\nclass = 1", fillcolor="#e58139c1"] ;
132 -> 133 ;
134 [label="entropy = 0.8454\nsamples = 11\nvalue = [8, 3]\nclass = 1", fillcolor="#e581399f"] ;
132 -> 134 ;
135 [label="spon_registrar <= 5.0\nentropy = 0.9972\nsamples = 177\nvalue = [83, 94]\nclass = 2", fillcolor="#399de51e"] ;
129 -> 135 ;
136 [label="locate_cmp <= 0.0\nentropy = 0.9812\nsamples = 93\nvalue = [54, 39]\nclass = 1", fillcolor="#e5813947"] ;
135 -> 136 ;
137 [label="tld <= 5.5\nentropy = 0.7793\nsamples = 13\nvalue = [10, 3]\nclass = 1", fillcolor="#e58139b3"] ;
136 -> 137 ;
138 [label="spon_registrar <= 3.0\nentropy = 0.8113\nsamples = 12\nvalue = [9, 3]\nclass = 1", fillcolor="#e58139aa"] ;
137 -> 138 ;
139 [label="entropy = 0.9183\nsamples = 3\nvalue = [2, 1]\nclass = 1", fillcolor="#e581397f"] ;
138 -> 139 ;
140 [label="entropy = 0.7642\nsamples = 9\nvalue = [7, 2]\nclass = 1", fillcolor="#e58139b6"] ;
138 -> 140 ;
141 [label="entropy = 0.0\nsamples = 1\nvalue = [1, 0]\nclass = 1", fillcolor="#e58139ff"] ;
137 -> 141 ;
142 [label="spon_registrar <= 3.0\nentropy = 0.9928\nsamples = 80\nvalue = [44, 36]\nclass = 1", fillcolor="#e581392e"] ;
136 -> 142 ;
143 [label="tld <= 5.5\nentropy = 0.971\nsamples = 55\nvalue = [33, 22]\nclass = 1", fillcolor="#e5813955"] ;
142 -> 143 ;
144 [label="entropy = 0.9751\nsamples = 54\nvalue = [32, 22]\nclass = 1", fillcolor="#e5813950"] ;
143 -> 144 ;
145 [label="entropy = 0.0\nsamples = 1\nvalue = [1, 0]\nclass = 1", fillcolor="#e58139ff"] ;
143 -> 145 ;
146 [label="tld <= 5.0\nentropy = 0.9896\nsamples = 25\nvalue = [11, 14]\nclass = 2", fillcolor="#399de537"] ;
142 -> 146 ;
147 [label="entropy = 0.9495\nsamples = 19\nvalue = [7, 12]\nclass = 2", fillcolor="#399de56a"] ;
146 -> 147 ;
148 [label="tld <= 7.0\nentropy = 0.9183\nsamples = 6\nvalue = [4, 2]\nclass = 1", fillcolor="#e581397f"] ;
146 -> 148 ;
149 [label="entropy = 0.9183\nsamples = 3\nvalue = [2, 1]\nclass = 1", fillcolor="#e581397f"] ;
148 -> 149 ;
150 [label="entropy = 0.9183\nsamples = 3\nvalue = [2, 1]\nclass = 1", fillcolor="#e581397f"] ;
148 -> 150 ;
151 [label="tld <= 4.5\nentropy = 0.9297\nsamples = 84\nvalue = [29, 55]\nclass = 2", fillcolor="#399de579"] ;
135 -> 151 ;
152 [label="locate_cmp <= 0.0\nentropy = 0.8997\nsamples = 76\nvalue = [24, 52]\nclass = 2", fillcolor="#399de589"] ;
151 -> 152 ;
153 [label="spon_registrar <= 7.5\nentropy = 0.7793\nsamples = 13\nvalue = [3, 10]\nclass = 2", fillcolor="#399de5b3"] ;
152 -> 153 ;
154 [label="entropy = 0.0\nsamples = 1\nvalue = [1, 0]\nclass = 1", fillcolor="#e58139ff"] ;
153 -> 154 ;
155 [label="spon_registrar <= 9.0\nentropy = 0.65\nsamples = 12\nvalue = [2, 10]\nclass = 2", fillcolor="#399de5cc"] ;
153 -> 155 ;
156 [label="entropy = 0.5917\nsamples = 7\nvalue = [1, 6]\nclass = 2", fillcolor="#399de5d4"] ;
155 -> 156 ;
157 [label="entropy = 0.7219\nsamples = 5\nvalue = [1, 4]\nclass = 2", fillcolor="#399de5bf"] ;
155 -> 157 ;
158 [label="spon_registrar <= 9.0\nentropy = 0.9183\nsamples = 63\nvalue = [21, 42]\nclass = 2", fillcolor="#399de57f"] ;
152 -> 158 ;
159 [label="spon_registrar <= 7.5\nentropy = 0.9072\nsamples = 62\nvalue = [20, 42]\nclass = 2", fillcolor="#399de586"] ;
158 -> 159 ;
160 [label="spon_registrar <= 6.5\nentropy = 0.8498\nsamples = 29\nvalue = [8, 21]\nclass = 2", fillcolor="#399de59e"] ;
159 -> 160 ;
161 [label="entropy = 0.9403\nsamples = 14\nvalue = [5, 9]\nclass = 2", fillcolor="#399de571"] ;
160 -> 161 ;
162 [label="entropy = 0.7219\nsamples = 15\nvalue = [3, 12]\nclass = 2", fillcolor="#399de5bf"] ;
160 -> 162 ;
163 [label="entropy = 0.9457\nsamples = 33\nvalue = [12, 21]\nclass = 2", fillcolor="#399de56d"] ;
159 -> 163 ;
164 [label="entropy = 0.0\nsamples = 1\nvalue = [1, 0]\nclass = 1", fillcolor="#e58139ff"] ;
158 -> 164 ;
165 [label="locate_cmp <= 0.0\nentropy = 0.9544\nsamples = 8\nvalue = [5, 3]\nclass = 1", fillcolor="#e5813966"] ;
151 -> 165 ;
166 [label="entropy = 0.0\nsamples = 1\nvalue = [1, 0]\nclass = 1", fillcolor="#e58139ff"] ;
165 -> 166 ;
167 [label="spon_registrar <= 9.5\nentropy = 0.9852\nsamples = 7\nvalue = [4, 3]\nclass = 1", fillcolor="#e5813940"] ;
165 -> 167 ;
168 [label="entropy = 0.9183\nsamples = 6\nvalue = [4, 2]\nclass = 1", fillcolor="#e581397f"] ;
167 -> 168 ;
169 [label="entropy = 0.0\nsamples = 1\nvalue = [0, 1]\nclass = 2", fillcolor="#399de5ff"] ;
167 -> 169 ;
170 [label="tld <= 5.5\nentropy = 0.8995\nsamples = 225\nvalue = [154, 71]\nclass = 1", fillcolor="#e5813989"] ;
128 -> 170 ;
171 [label="locate_cmp <= 0.0\nentropy = 0.8461\nsamples = 183\nvalue = [133, 50]\nclass = 1", fillcolor="#e581399f"] ;
170 -> 171 ;
172 [label="spon_registrar <= 11.5\nentropy = 0.9841\nsamples = 54\nvalue = [31, 23]\nclass = 1", fillcolor="#e5813942"] ;
171 -> 172 ;
173 [label="entropy = 0.0\nsamples = 2\nvalue = [2, 0]\nclass = 1", fillcolor="#e58139ff"] ;
172 -> 173 ;
174 [label="email_type <= 6.0\nentropy = 0.9904\nsamples = 52\nvalue = [29, 23]\nclass = 1", fillcolor="#e5813935"] ;
172 -> 174 ;
175 [label="entropy = 0.8813\nsamples = 10\nvalue = [7, 3]\nclass = 1", fillcolor="#e5813992"] ;
174 -> 175 ;
176 [label="tld <= 4.5\nentropy = 0.9984\nsamples = 42\nvalue = [22, 20]\nclass = 1", fillcolor="#e5813917"] ;
174 -> 176 ;
177 [label="entropy = 0.9947\nsamples = 35\nvalue = [19, 16]\nclass = 1", fillcolor="#e5813928"] ;
176 -> 177 ;
178 [label="entropy = 0.9852\nsamples = 7\nvalue = [3, 4]\nclass = 2", fillcolor="#399de540"] ;
176 -> 178 ;
179 [label="tld <= 4.5\nentropy = 0.7401\nsamples = 129\nvalue = [102, 27]\nclass = 1", fillcolor="#e58139bb"] ;
171 -> 179 ;
180 [label="spon_registrar <= 11.5\nentropy = 0.8699\nsamples = 55\nvalue = [39, 16]\nclass = 1", fillcolor="#e5813996"] ;
179 -> 180 ;
181 [label="entropy = 0.0\nsamples = 2\nvalue = [2, 0]\nclass = 1", fillcolor="#e58139ff"] ;
180 -> 181 ;
182 [label="entropy = 0.8836\nsamples = 53\nvalue = [37, 16]\nclass = 1", fillcolor="#e5813991"] ;
180 -> 182 ;
183 [label="entropy = 0.6064\nsamples = 74\nvalue = [63, 11]\nclass = 1", fillcolor="#e58139d2"] ;
179 -> 183 ;
184 [label="tld <= 6.5\nentropy = 1.0\nsamples = 42\nvalue = [21, 21]\nclass = 1", fillcolor="#e5813900"] ;
170 -> 184 ;
185 [label="locate_cmp <= 0.0\nentropy = 0.9666\nsamples = 28\nvalue = [11, 17]\nclass = 2", fillcolor="#399de55a"] ;
184 -> 185 ;
186 [label="entropy = 0.971\nsamples = 10\nvalue = [4, 6]\nclass = 2", fillcolor="#399de555"] ;
185 -> 186 ;
187 [label="entropy = 0.9641\nsamples = 18\nvalue = [7, 11]\nclass = 2", fillcolor="#399de55d"] ;
185 -> 187 ;
188 [label="tld <= 7.5\nentropy = 0.8631\nsamples = 14\nvalue = [10, 4]\nclass = 1", fillcolor="#e5813999"] ;
184 -> 188 ;
189 [label="entropy = 0.0\nsamples = 3\nvalue = [3, 0]\nclass = 1", fillcolor="#e58139ff"] ;
188 -> 189 ;
190 [label="locate_cmp <= 0.0\nentropy = 0.9457\nsamples = 11\nvalue = [7, 4]\nclass = 1", fillcolor="#e581396d"] ;
188 -> 190 ;
191 [label="entropy = 1.0\nsamples = 2\nvalue = [1, 1]\nclass = 1", fillcolor="#e5813900"] ;
190 -> 191 ;
192 [label="entropy = 0.9183\nsamples = 9\nvalue = [6, 3]\nclass = 1", fillcolor="#e581397f"] ;
190 -> 192 ;
193 [label="tld <= 10.5\nentropy = 0.0743\nsamples = 1329\nvalue = [12, 1317]\nclass = 2", fillcolor="#399de5fd"] ;
105 -> 193 ;
194 [label="spon_registrar <= 6.0\nentropy = 0.5186\nsamples = 43\nvalue = [5, 38]\nclass = 2", fillcolor="#399de5dd"] ;
193 -> 194 ;
195 [label="entropy = 0.0\nsamples = 4\nvalue = [0, 4]\nclass = 2", fillcolor="#399de5ff"] ;
194 -> 195 ;
196 [label="locate_cmp <= 0.0\nentropy = 0.5525\nsamples = 39\nvalue = [5, 34]\nclass = 2", fillcolor="#399de5da"] ;
194 -> 196 ;
197 [label="tld <= 9.5\nentropy = 0.7219\nsamples = 5\nvalue = [1, 4]\nclass = 2", fillcolor="#399de5bf"] ;
196 -> 197 ;
198 [label="entropy = 0.9183\nsamples = 3\nvalue = [1, 2]\nclass = 2", fillcolor="#399de57f"] ;
197 -> 198 ;
199 [label="entropy = 0.0\nsamples = 2\nvalue = [0, 2]\nclass = 2", fillcolor="#399de5ff"] ;
197 -> 199 ;
200 [label="tld <= 9.5\nentropy = 0.5226\nsamples = 34\nvalue = [4, 30]\nclass = 2", fillcolor="#399de5dd"] ;
196 -> 200 ;
201 [label="entropy = 0.4138\nsamples = 24\nvalue = [2, 22]\nclass = 2", fillcolor="#399de5e8"] ;
200 -> 201 ;
202 [label="entropy = 0.7219\nsamples = 10\nvalue = [2, 8]\nclass = 2", fillcolor="#399de5bf"] ;
200 -> 202 ;
203 [label="tld <= 15.5\nentropy = 0.0488\nsamples = 1286\nvalue = [7, 1279]\nclass = 2", fillcolor="#399de5fe"] ;
193 -> 203 ;
204 [label="locate_cmp <= 0.0\nentropy = 0.0104\nsamples = 1108\nvalue = [1, 1107]\nclass = 2", fillcolor="#399de5ff"] ;
203 -> 204 ;
205 [label="tld <= 13.5\nentropy = 0.0612\nsamples = 140\nvalue = [1, 139]\nclass = 2", fillcolor="#399de5fd"] ;
204 -> 205 ;
206 [label="entropy = 0.2762\nsamples = 21\nvalue = [1, 20]\nclass = 2", fillcolor="#399de5f2"] ;
205 -> 206 ;
207 [label="entropy = 0.0\nsamples = 119\nvalue = [0, 119]\nclass = 2", fillcolor="#399de5ff"] ;
205 -> 207 ;
208 [label="entropy = 0.0\nsamples = 968\nvalue = [0, 968]\nclass = 2", fillcolor="#399de5ff"] ;
204 -> 208 ;
209 [label="locate_cmp <= 0.0\nentropy = 0.2127\nsamples = 178\nvalue = [6, 172]\nclass = 2", fillcolor="#399de5f6"] ;
203 -> 209 ;
210 [label="spon_registrar <= 2.0\nentropy = 0.2519\nsamples = 95\nvalue = [4, 91]\nclass = 2", fillcolor="#399de5f4"] ;
209 -> 210 ;
211 [label="email_type <= 6.0\nentropy = 0.2738\nsamples = 85\nvalue = [4, 81]\nclass = 2", fillcolor="#399de5f2"] ;
210 -> 211 ;
212 [label="entropy = 0.2762\nsamples = 84\nvalue = [4, 80]\nclass = 2", fillcolor="#399de5f2"] ;
211 -> 212 ;
213 [label="entropy = 0.0\nsamples = 1\nvalue = [0, 1]\nclass = 2", fillcolor="#399de5ff"] ;
211 -> 213 ;
214 [label="entropy = 0.0\nsamples = 10\nvalue = [0, 10]\nclass = 2", fillcolor="#399de5ff"] ;
210 -> 214 ;
215 [label="spon_registrar <= 8.0\nentropy = 0.1639\nsamples = 83\nvalue = [2, 81]\nclass = 2", fillcolor="#399de5f9"] ;
209 -> 215 ;
216 [label="entropy = 0.0\nsamples = 29\nvalue = [0, 29]\nclass = 2", fillcolor="#399de5ff"] ;
215 -> 216 ;
217 [label="entropy = 0.2285\nsamples = 54\nvalue = [2, 52]\nclass = 2", fillcolor="#399de5f5"] ;
215 -> 217 ;
218 [label="spon_registrar <= 0.5\nentropy = 0.9885\nsamples = 6921\nvalue = [3025, 3896]\nclass = 2", fillcolor="#399de539"] ;
0 -> 218 [labeldistance=2.5, labelangle=-45, headlabel="False"] ;
219 [label="keyword <= 3.5\nentropy = 0.7055\nsamples = 2735\nvalue = [525, 2210]\nclass = 2", fillcolor="#399de5c2"] ;
218 -> 219 ;
220 [label="tld <= 9.5\nentropy = 0.8597\nsamples = 1674\nvalue = [474, 1200]\nclass = 2", fillcolor="#399de59a"] ;
219 -> 220 ;
221 [label="tld <= 3.5\nentropy = 0.9001\nsamples = 1493\nvalue = [472, 1021]\nclass = 2", fillcolor="#399de589"] ;
220 -> 221 ;
222 [label="locate_cmp <= 0.0\nentropy = 0.8665\nsamples = 1405\nvalue = [405, 1000]\nclass = 2", fillcolor="#399de598"] ;
221 -> 222 ;
223 [label="keyword <= 2.5\nentropy = 0.8865\nsamples = 1265\nvalue = [385, 880]\nclass = 2", fillcolor="#399de58f"] ;
222 -> 223 ;
224 [label="tld <= 2.5\nentropy = 0.8718\nsamples = 1197\nvalue = [350, 847]\nclass = 2", fillcolor="#399de596"] ;
223 -> 224 ;
225 [label="tld <= 1.5\nentropy = 0.8721\nsamples = 1155\nvalue = [338, 817]\nclass = 2", fillcolor="#399de596"] ;
224 -> 225 ;
226 [label="entropy = 0.8721\nsamples = 1138\nvalue = [333, 805]\nclass = 2", fillcolor="#399de596"] ;
225 -> 226 ;
227 [label="entropy = 0.874\nsamples = 17\nvalue = [5, 12]\nclass = 2", fillcolor="#399de595"] ;
225 -> 227 ;
228 [label="entropy = 0.8631\nsamples = 42\nvalue = [12, 30]\nclass = 2", fillcolor="#399de599"] ;
224 -> 228 ;
229 [label="entropy = 0.9994\nsamples = 68\nvalue = [35, 33]\nclass = 1", fillcolor="#e581390f"] ;
223 -> 229 ;
230 [label="tld <= 2.0\nentropy = 0.5917\nsamples = 140\nvalue = [20, 120]\nclass = 2", fillcolor="#399de5d4"] ;
222 -> 230 ;
231 [label="keyword <= 2.5\nentropy = 0.6001\nsamples = 130\nvalue = [19, 111]\nclass = 2", fillcolor="#399de5d3"] ;
230 -> 231 ;
232 [label="entropy = 0.5917\nsamples = 119\nvalue = [17, 102]\nclass = 2", fillcolor="#399de5d4"] ;
231 -> 232 ;
233 [label="entropy = 0.684\nsamples = 11\nvalue = [2, 9]\nclass = 2", fillcolor="#399de5c6"] ;
231 -> 233 ;
234 [label="entropy = 0.469\nsamples = 10\nvalue = [1, 9]\nclass = 2", fillcolor="#399de5e3"] ;
230 -> 234 ;
235 [label="tld <= 5.5\nentropy = 0.7928\nsamples = 88\nvalue = [67, 21]\nclass = 1", fillcolor="#e58139af"] ;
221 -> 235 ;
236 [label="locate_cmp <= 0.0\nentropy = 0.7012\nsamples = 79\nvalue = [64, 15]\nclass = 1", fillcolor="#e58139c3"] ;
235 -> 236 ;
237 [label="keyword <= 2.5\nentropy = 0.597\nsamples = 69\nvalue = [59, 10]\nclass = 1", fillcolor="#e58139d4"] ;
236 -> 237 ;
238 [label="entropy = 0.6313\nsamples = 63\nvalue = [53, 10]\nclass = 1", fillcolor="#e58139cf"] ;
237 -> 238 ;
239 [label="entropy = 0.0\nsamples = 6\nvalue = [6, 0]\nclass = 1", fillcolor="#e58139ff"] ;
237 -> 239 ;
240 [label="tld <= 4.5\nentropy = 1.0\nsamples = 10\nvalue = [5, 5]\nclass = 1", fillcolor="#e5813900"] ;
236 -> 240 ;
241 [label="entropy = 0.9911\nsamples = 9\nvalue = [4, 5]\nclass = 2", fillcolor="#399de533"] ;
240 -> 241 ;
242 [label="entropy = 0.0\nsamples = 1\nvalue = [1, 0]\nclass = 1", fillcolor="#e58139ff"] ;
240 -> 242 ;
243 [label="tld <= 6.5\nentropy = 0.9183\nsamples = 9\nvalue = [3, 6]\nclass = 2", fillcolor="#399de57f"] ;
235 -> 243 ;
244 [label="entropy = 0.0\nsamples = 4\nvalue = [0, 4]\nclass = 2", fillcolor="#399de5ff"] ;
243 -> 244 ;
245 [label="tld <= 8.0\nentropy = 0.971\nsamples = 5\nvalue = [3, 2]\nclass = 1", fillcolor="#e5813955"] ;
243 -> 245 ;
246 [label="entropy = 1.0\nsamples = 4\nvalue = [2, 2]\nclass = 1", fillcolor="#e5813900"] ;
245 -> 246 ;
247 [label="entropy = 0.0\nsamples = 1\nvalue = [1, 0]\nclass = 1", fillcolor="#e58139ff"] ;
245 -> 247 ;
248 [label="tld <= 15.5\nentropy = 0.0877\nsamples = 181\nvalue = [2, 179]\nclass = 2", fillcolor="#399de5fc"] ;
220 -> 248 ;
249 [label="entropy = 0.0\nsamples = 161\nvalue = [0, 161]\nclass = 2", fillcolor="#399de5ff"] ;
248 -> 249 ;
250 [label="locate_cmp <= 0.0\nentropy = 0.469\nsamples = 20\nvalue = [2, 18]\nclass = 2", fillcolor="#399de5e3"] ;
248 -> 250 ;
251 [label="email_type <= 6.0\nentropy = 0.5436\nsamples = 16\nvalue = [2, 14]\nclass = 2", fillcolor="#399de5db"] ;
250 -> 251 ;
252 [label="entropy = 0.5665\nsamples = 15\nvalue = [2, 13]\nclass = 2", fillcolor="#399de5d8"] ;
251 -> 252 ;
253 [label="entropy = 0.0\nsamples = 1\nvalue = [0, 1]\nclass = 2", fillcolor="#399de5ff"] ;
251 -> 253 ;
254 [label="entropy = 0.0\nsamples = 4\nvalue = [0, 4]\nclass = 2", fillcolor="#399de5ff"] ;
250 -> 254 ;
255 [label="tld <= 3.5\nentropy = 0.2781\nsamples = 1061\nvalue = [51, 1010]\nclass = 2", fillcolor="#399de5f2"] ;
219 -> 255 ;
256 [label="tld <= 2.0\nentropy = 0.2616\nsamples = 1016\nvalue = [45, 971]\nclass = 2", fillcolor="#399de5f3"] ;
255 -> 256 ;
257 [label="email_type <= 6.0\nentropy = 0.267\nsamples = 989\nvalue = [45, 944]\nclass = 2", fillcolor="#399de5f3"] ;
256 -> 257 ;
258 [label="locate_cmp <= 0.0\nentropy = 0.2672\nsamples = 988\nvalue = [45, 943]\nclass = 2", fillcolor="#399de5f3"] ;
257 -> 258 ;
259 [label="entropy = 0.2674\nsamples = 943\nvalue = [43, 900]\nclass = 2", fillcolor="#399de5f3"] ;
258 -> 259 ;
260 [label="entropy = 0.2623\nsamples = 45\nvalue = [2, 43]\nclass = 2", fillcolor="#399de5f3"] ;
258 -> 260 ;
261 [label="entropy = 0.0\nsamples = 1\nvalue = [0, 1]\nclass = 2", fillcolor="#399de5ff"] ;
257 -> 261 ;
262 [label="entropy = 0.0\nsamples = 27\nvalue = [0, 27]\nclass = 2", fillcolor="#399de5ff"] ;
256 -> 262 ;
263 [label="locate_cmp <= 0.0\nentropy = 0.5665\nsamples = 45\nvalue = [6, 39]\nclass = 2", fillcolor="#399de5d8"] ;
255 -> 263 ;
264 [label="tld <= 5.5\nentropy = 0.4465\nsamples = 43\nvalue = [4, 39]\nclass = 2", fillcolor="#399de5e5"] ;
263 -> 264 ;
265 [label="entropy = 0.4612\nsamples = 41\nvalue = [4, 37]\nclass = 2", fillcolor="#399de5e3"] ;
264 -> 265 ;
266 [label="entropy = 0.0\nsamples = 2\nvalue = [0, 2]\nclass = 2", fillcolor="#399de5ff"] ;
264 -> 266 ;
267 [label="entropy = 0.0\nsamples = 2\nvalue = [2, 0]\nclass = 1", fillcolor="#e58139ff"] ;
263 -> 267 ;
268 [label="keyword <= 3.5\nentropy = 0.9725\nsamples = 4186\nvalue = [2500, 1686]\nclass = 1", fillcolor="#e5813953"] ;
218 -> 268 ;
269 [label="spon_registrar <= 2.5\nentropy = 0.8905\nsamples = 3325\nvalue = [2302, 1023]\nclass = 1", fillcolor="#e581398e"] ;
268 -> 269 ;
270 [label="locate_cmp <= 0.0\nentropy = 0.5633\nsamples = 999\nvalue = [867, 132]\nclass = 1", fillcolor="#e58139d8"] ;
269 -> 270 ;
271 [label="spon_registrar <= 1.5\nentropy = 0.2609\nsamples = 544\nvalue = [520, 24]\nclass = 1", fillcolor="#e58139f3"] ;
270 -> 271 ;
272 [label="tld <= 3.5\nentropy = 0.246\nsamples = 539\nvalue = [517, 22]\nclass = 1", fillcolor="#e58139f4"] ;
271 -> 272 ;
273 [label="tld <= 2.0\nentropy = 0.2693\nsamples = 478\nvalue = [456, 22]\nclass = 1", fillcolor="#e58139f3"] ;
272 -> 273 ;
274 [label="keyword <= 2.5\nentropy = 0.2171\nsamples = 462\nvalue = [446, 16]\nclass = 1", fillcolor="#e58139f6"] ;
273 -> 274 ;
275 [label="email_type <= 6.0\nentropy = 0.2204\nsamples = 453\nvalue = [437, 16]\nclass = 1", fillcolor="#e58139f6"] ;
274 -> 275 ;
276 [label="entropy = 0.0\nsamples = 1\nvalue = [1, 0]\nclass = 1", fillcolor="#e58139ff"] ;
275 -> 276 ;
277 [label="entropy = 0.2208\nsamples = 452\nvalue = [436, 16]\nclass = 1", fillcolor="#e58139f6"] ;
275 -> 277 ;
278 [label="entropy = 0.0\nsamples = 9\nvalue = [9, 0]\nclass = 1", fillcolor="#e58139ff"] ;
274 -> 278 ;
279 [label="keyword <= 2.5\nentropy = 0.9544\nsamples = 16\nvalue = [10, 6]\nclass = 1", fillcolor="#e5813966"] ;
273 -> 279 ;
280 [label="entropy = 0.971\nsamples = 15\nvalue = [9, 6]\nclass = 1", fillcolor="#e5813955"] ;
279 -> 280 ;
281 [label="entropy = 0.0\nsamples = 1\nvalue = [1, 0]\nclass = 1", fillcolor="#e58139ff"] ;
279 -> 281 ;
282 [label="entropy = 0.0\nsamples = 61\nvalue = [61, 0]\nclass = 1", fillcolor="#e58139ff"] ;
272 -> 282 ;
283 [label="entropy = 0.971\nsamples = 5\nvalue = [3, 2]\nclass = 1", fillcolor="#e5813955"] ;
271 -> 283 ;
284 [label="tld <= 2.0\nentropy = 0.7906\nsamples = 455\nvalue = [347, 108]\nclass = 1", fillcolor="#e58139b0"] ;
270 -> 284 ;
285 [label="spon_registrar <= 1.5\nentropy = 0.678\nsamples = 363\nvalue = [298, 65]\nclass = 1", fillcolor="#e58139c7"] ;
284 -> 285 ;
286 [label="keyword <= 2.5\nentropy = 0.9749\nsamples = 86\nvalue = [51, 35]\nclass = 1", fillcolor="#e5813950"] ;
285 -> 286 ;
287 [label="entropy = 0.9813\nsamples = 81\nvalue = [47, 34]\nclass = 1", fillcolor="#e5813947"] ;
286 -> 287 ;
288 [label="entropy = 0.7219\nsamples = 5\nvalue = [4, 1]\nclass = 1", fillcolor="#e58139bf"] ;
286 -> 288 ;
289 [label="keyword <= 2.5\nentropy = 0.4948\nsamples = 277\nvalue = [247, 30]\nclass = 1", fillcolor="#e58139e0"] ;
285 -> 289 ;
290 [label="email_type <= 6.0\nentropy = 0.4794\nsamples = 271\nvalue = [243, 28]\nclass = 1", fillcolor="#e58139e2"] ;
289 -> 290 ;
291 [label="entropy = 0.65\nsamples = 6\nvalue = [5, 1]\nclass = 1", fillcolor="#e58139cc"] ;
290 -> 291 ;
292 [label="entropy = 0.4749\nsamples = 265\nvalue = [238, 27]\nclass = 1", fillcolor="#e58139e2"] ;
290 -> 292 ;
293 [label="entropy = 0.9183\nsamples = 6\nvalue = [4, 2]\nclass = 1", fillcolor="#e581397f"] ;
289 -> 293 ;
294 [label="tld <= 3.5\nentropy = 0.9969\nsamples = 92\nvalue = [49, 43]\nclass = 1", fillcolor="#e581391f"] ;
284 -> 294 ;
295 [label="spon_registrar <= 1.5\nentropy = 0.9059\nsamples = 56\nvalue = [18, 38]\nclass = 2", fillcolor="#399de586"] ;
294 -> 295 ;
296 [label="entropy = 0.9183\nsamples = 3\nvalue = [2, 1]\nclass = 1", fillcolor="#e581397f"] ;
295 -> 296 ;
297 [label="keyword <= 2.5\nentropy = 0.8836\nsamples = 53\nvalue = [16, 37]\nclass = 2", fillcolor="#399de591"] ;
295 -> 297 ;
298 [label="entropy = 0.874\nsamples = 51\nvalue = [15, 36]\nclass = 2", fillcolor="#399de595"] ;
297 -> 298 ;
299 [label="entropy = 1.0\nsamples = 2\nvalue = [1, 1]\nclass = 1", fillcolor="#e5813900"] ;
297 -> 299 ;
300 [label="spon_registrar <= 1.5\nentropy = 0.5813\nsamples = 36\nvalue = [31, 5]\nclass = 1", fillcolor="#e58139d6"] ;
294 -> 300 ;
301 [label="entropy = 0.65\nsamples = 6\nvalue = [5, 1]\nclass = 1", fillcolor="#e58139cc"] ;
300 -> 301 ;
302 [label="entropy = 0.5665\nsamples = 30\nvalue = [26, 4]\nclass = 1", fillcolor="#e58139d8"] ;
300 -> 302 ;
303 [label="spon_registrar <= 11.5\nentropy = 0.9602\nsamples = 2326\nvalue = [1435, 891]\nclass = 1", fillcolor="#e5813961"] ;
269 -> 303 ;
304 [label="spon_registrar <= 9.5\nentropy = 0.9992\nsamples = 1018\nvalue = [526, 492]\nclass = 1", fillcolor="#e5813910"] ;
303 -> 304 ;
305 [label="email_type <= 6.0\nentropy = 0.9346\nsamples = 733\nvalue = [476, 257]\nclass = 1", fillcolor="#e5813975"] ;
304 -> 305 ;
306 [label="locate_cmp <= 0.0\nentropy = 0.7884\nsamples = 233\nvalue = [178, 55]\nclass = 1", fillcolor="#e58139b0"] ;
305 -> 306 ;
307 [label="spon_registrar <= 6.0\nentropy = 0.7651\nsamples = 229\nvalue = [178, 51]\nclass = 1", fillcolor="#e58139b6"] ;
306 -> 307 ;
308 [label="tld <= 2.5\nentropy = 0.831\nsamples = 175\nvalue = [129, 46]\nclass = 1", fillcolor="#e58139a4"] ;
307 -> 308 ;
309 [label="keyword <= 2.5\nentropy = 0.851\nsamples = 159\nvalue = [115, 44]\nclass = 1", fillcolor="#e581399d"] ;
308 -> 309 ;
310 [label="entropy = 0.8631\nsamples = 147\nvalue = [105, 42]\nclass = 1", fillcolor="#e5813999"] ;
309 -> 310 ;
311 [label="entropy = 0.65\nsamples = 12\nvalue = [10, 2]\nclass = 1", fillcolor="#e58139cc"] ;
309 -> 311 ;
312 [label="keyword <= 2.5\nentropy = 0.5436\nsamples = 16\nvalue = [14, 2]\nclass = 1", fillcolor="#e58139db"] ;
308 -> 312 ;
313 [label="entropy = 0.5665\nsamples = 15\nvalue = [13, 2]\nclass = 1", fillcolor="#e58139d8"] ;
312 -> 313 ;
314 [label="entropy = 0.0\nsamples = 1\nvalue = [1, 0]\nclass = 1", fillcolor="#e58139ff"] ;
312 -> 314 ;
315 [label="tld <= 2.5\nentropy = 0.4451\nsamples = 54\nvalue = [49, 5]\nclass = 1", fillcolor="#e58139e5"] ;
307 -> 315 ;
316 [label="entropy = 0.496\nsamples = 46\nvalue = [41, 5]\nclass = 1", fillcolor="#e58139e0"] ;
315 -> 316 ;
317 [label="entropy = 0.0\nsamples = 8\nvalue = [8, 0]\nclass = 1", fillcolor="#e58139ff"] ;
315 -> 317 ;
318 [label="entropy = 0.0\nsamples = 4\nvalue = [0, 4]\nclass = 2", fillcolor="#399de5ff"] ;
306 -> 318 ;
319 [label="tld <= 2.0\nentropy = 0.9732\nsamples = 500\nvalue = [298, 202]\nclass = 1", fillcolor="#e5813952"] ;
305 -> 319 ;
320 [label="spon_registrar <= 6.5\nentropy = 0.9488\nsamples = 389\nvalue = [246, 143]\nclass = 1", fillcolor="#e581396b"] ;
319 -> 320 ;
321 [label="keyword <= 2.5\nentropy = 0.9238\nsamples = 236\nvalue = [156, 80]\nclass = 1", fillcolor="#e581397c"] ;
320 -> 321 ;
322 [label="spon_registrar <= 5.0\nentropy = 0.9281\nsamples = 230\nvalue = [151, 79]\nclass = 1", fillcolor="#e581397a"] ;
321 -> 322 ;
323 [label="locate_cmp <= 0.0\nentropy = 0.9088\nsamples = 108\nvalue = [73, 35]\nclass = 1", fillcolor="#e5813985"] ;
322 -> 323 ;
324 [label="entropy = 0.9403\nsamples = 42\nvalue = [27, 15]\nclass = 1", fillcolor="#e5813971"] ;
323 -> 324 ;
325 [label="entropy = 0.885\nsamples = 66\nvalue = [46, 20]\nclass = 1", fillcolor="#e5813990"] ;
323 -> 325 ;
326 [label="locate_cmp <= 0.0\nentropy = 0.9432\nsamples = 122\nvalue = [78, 44]\nclass = 1", fillcolor="#e581396f"] ;
322 -> 326 ;
327 [label="entropy = 1.0\nsamples = 6\nvalue = [3, 3]\nclass = 1", fillcolor="#e5813900"] ;
326 -> 327 ;
328 [label="entropy = 0.9371\nsamples = 116\nvalue = [75, 41]\nclass = 1", fillcolor="#e5813974"] ;
326 -> 328 ;
329 [label="spon_registrar <= 5.0\nentropy = 0.65\nsamples = 6\nvalue = [5, 1]\nclass = 1", fillcolor="#e58139cc"] ;
321 -> 329 ;
330 [label="entropy = 0.0\nsamples = 2\nvalue = [2, 0]\nclass = 1", fillcolor="#e58139ff"] ;
329 -> 330 ;
331 [label="entropy = 0.8113\nsamples = 4\nvalue = [3, 1]\nclass = 1", fillcolor="#e58139aa"] ;
329 -> 331 ;
332 [label="locate_cmp <= 0.0\nentropy = 0.9774\nsamples = 153\nvalue = [90, 63]\nclass = 1", fillcolor="#e581394d"] ;
320 -> 332 ;
333 [label="spon_registrar <= 7.5\nentropy = 0.9183\nsamples = 6\nvalue = [2, 4]\nclass = 2", fillcolor="#399de57f"] ;
332 -> 333 ;
334 [label="entropy = 0.0\nsamples = 1\nvalue = [1, 0]\nclass = 1", fillcolor="#e58139ff"] ;
333 -> 334 ;
335 [label="keyword <= 2.5\nentropy = 0.7219\nsamples = 5\nvalue = [1, 4]\nclass = 2", fillcolor="#399de5bf"] ;
333 -> 335 ;
336 [label="entropy = 0.0\nsamples = 4\nvalue = [0, 4]\nclass = 2", fillcolor="#399de5ff"] ;
335 -> 336 ;
337 [label="entropy = 0.0\nsamples = 1\nvalue = [1, 0]\nclass = 1", fillcolor="#e58139ff"] ;
335 -> 337 ;
338 [label="spon_registrar <= 7.5\nentropy = 0.9717\nsamples = 147\nvalue = [88, 59]\nclass = 1", fillcolor="#e5813954"] ;
332 -> 338 ;
339 [label="keyword <= 2.5\nentropy = 0.9946\nsamples = 81\nvalue = [44, 37]\nclass = 1", fillcolor="#e5813929"] ;
338 -> 339 ;
340 [label="entropy = 0.9943\nsamples = 79\nvalue = [43, 36]\nclass = 1", fillcolor="#e581392a"] ;
339 -> 340 ;
341 [label="entropy = 1.0\nsamples = 2\nvalue = [1, 1]\nclass = 1", fillcolor="#e5813900"] ;
339 -> 341 ;
342 [label="entropy = 0.9183\nsamples = 66\nvalue = [44, 22]\nclass = 1", fillcolor="#e581397f"] ;
338 -> 342 ;
343 [label="tld <= 3.5\nentropy = 0.9971\nsamples = 111\nvalue = [52, 59]\nclass = 2", fillcolor="#399de51e"] ;
319 -> 343 ;
344 [label="spon_registrar <= 7.5\nentropy = 0.6666\nsamples = 46\nvalue = [8, 38]\nclass = 2", fillcolor="#399de5c9"] ;
343 -> 344 ;
345 [label="locate_cmp <= 0.0\nentropy = 0.8366\nsamples = 30\nvalue = [8, 22]\nclass = 2", fillcolor="#399de5a2"] ;
344 -> 345 ;
346 [label="entropy = 0.0\nsamples = 1\nvalue = [1, 0]\nclass = 1", fillcolor="#e58139ff"] ;
345 -> 346 ;
347 [label="spon_registrar <= 5.0\nentropy = 0.7973\nsamples = 29\nvalue = [7, 22]\nclass = 2", fillcolor="#399de5ae"] ;
345 -> 347 ;
348 [label="entropy = 0.4138\nsamples = 12\nvalue = [1, 11]\nclass = 2", fillcolor="#399de5e8"] ;
347 -> 348 ;
349 [label="spon_registrar <= 6.5\nentropy = 0.9367\nsamples = 17\nvalue = [6, 11]\nclass = 2", fillcolor="#399de574"] ;
347 -> 349 ;
350 [label="keyword <= 2.5\nentropy = 0.8113\nsamples = 4\nvalue = [1, 3]\nclass = 2", fillcolor="#399de5aa"] ;
349 -> 350 ;
351 [label="entropy = 0.9183\nsamples = 3\nvalue = [1, 2]\nclass = 2", fillcolor="#399de57f"] ;
350 -> 351 ;
352 [label="entropy = 0.0\nsamples = 1\nvalue = [0, 1]\nclass = 2", fillcolor="#399de5ff"] ;
350 -> 352 ;
353 [label="keyword <= 2.5\nentropy = 0.9612\nsamples = 13\nvalue = [5, 8]\nclass = 2", fillcolor="#399de560"] ;
349 -> 353 ;
354 [label="entropy = 0.9183\nsamples = 12\nvalue = [4, 8]\nclass = 2", fillcolor="#399de57f"] ;
353 -> 354 ;
355 [label="entropy = 0.0\nsamples = 1\nvalue = [1, 0]\nclass = 1", fillcolor="#e58139ff"] ;
353 -> 355 ;
356 [label="entropy = 0.0\nsamples = 16\nvalue = [0, 16]\nclass = 2", fillcolor="#399de5ff"] ;
344 -> 356 ;
357 [label="tld <= 5.5\nentropy = 0.9077\nsamples = 65\nvalue = [44, 21]\nclass = 1", fillcolor="#e5813985"] ;
343 -> 357 ;
358 [label="spon_registrar <= 8.5\nentropy = 0.8631\nsamples = 56\nvalue = [40, 16]\nclass = 1", fillcolor="#e5813999"] ;
357 -> 358 ;
359 [label="spon_registrar <= 6.5\nentropy = 0.8836\nsamples = 53\nvalue = [37, 16]\nclass = 1", fillcolor="#e5813991"] ;
358 -> 359 ;
360 [label="spon_registrar <= 5.0\nentropy = 0.7496\nsamples = 28\nvalue = [22, 6]\nclass = 1", fillcolor="#e58139b9"] ;
359 -> 360 ;
361 [label="locate_cmp <= 0.0\nentropy = 0.8997\nsamples = 19\nvalue = [13, 6]\nclass = 1", fillcolor="#e5813989"] ;
360 -> 361 ;
362 [label="entropy = 0.9183\nsamples = 9\nvalue = [6, 3]\nclass = 1", fillcolor="#e581397f"] ;
361 -> 362 ;
363 [label="entropy = 0.8813\nsamples = 10\nvalue = [7, 3]\nclass = 1", fillcolor="#e5813992"] ;
361 -> 363 ;
364 [label="entropy = 0.0\nsamples = 9\nvalue = [9, 0]\nclass = 1", fillcolor="#e58139ff"] ;
360 -> 364 ;
365 [label="locate_cmp <= 0.0\nentropy = 0.971\nsamples = 25\nvalue = [15, 10]\nclass = 1", fillcolor="#e5813955"] ;
359 -> 365 ;
366 [label="entropy = 0.0\nsamples = 1\nvalue = [1, 0]\nclass = 1", fillcolor="#e58139ff"] ;
365 -> 366 ;
367 [label="keyword <= 2.5\nentropy = 0.9799\nsamples = 24\nvalue = [14, 10]\nclass = 1", fillcolor="#e5813949"] ;
365 -> 367 ;
368 [label="spon_registrar <= 7.5\nentropy = 0.9877\nsamples = 23\nvalue = [13, 10]\nclass = 1", fillcolor="#e581393b"] ;
367 -> 368 ;
369 [label="entropy = 1.0\nsamples = 10\nvalue = [5, 5]\nclass = 1", fillcolor="#e5813900"] ;
368 -> 369 ;
370 [label="entropy = 0.9612\nsamples = 13\nvalue = [8, 5]\nclass = 1", fillcolor="#e5813960"] ;
368 -> 370 ;
371 [label="entropy = 0.0\nsamples = 1\nvalue = [1, 0]\nclass = 1", fillcolor="#e58139ff"] ;
367 -> 371 ;
372 [label="entropy = 0.0\nsamples = 3\nvalue = [3, 0]\nclass = 1", fillcolor="#e58139ff"] ;
358 -> 372 ;
373 [label="tld <= 12.0\nentropy = 0.9911\nsamples = 9\nvalue = [4, 5]\nclass = 2", fillcolor="#399de533"] ;
357 -> 373 ;
374 [label="spon_registrar <= 7.0\nentropy = 0.9544\nsamples = 8\nvalue = [3, 5]\nclass = 2", fillcolor="#399de566"] ;
373 -> 374 ;
375 [label="spon_registrar <= 5.0\nentropy = 0.8631\nsamples = 7\nvalue = [2, 5]\nclass = 2", fillcolor="#399de599"] ;
374 -> 375 ;
376 [label="tld <= 7.0\nentropy = 0.9183\nsamples = 6\nvalue = [2, 4]\nclass = 2", fillcolor="#399de57f"] ;
375 -> 376 ;
377 [label="entropy = 1.0\nsamples = 2\nvalue = [1, 1]\nclass = 1", fillcolor="#e5813900"] ;
376 -> 377 ;
378 [label="entropy = 0.8113\nsamples = 4\nvalue = [1, 3]\nclass = 2", fillcolor="#399de5aa"] ;
376 -> 378 ;
379 [label="entropy = 0.0\nsamples = 1\nvalue = [0, 1]\nclass = 2", fillcolor="#399de5ff"] ;
375 -> 379 ;
380 [label="entropy = 0.0\nsamples = 1\nvalue = [1, 0]\nclass = 1", fillcolor="#e58139ff"] ;
374 -> 380 ;
381 [label="entropy = 0.0\nsamples = 1\nvalue = [1, 0]\nclass = 1", fillcolor="#e58139ff"] ;
373 -> 381 ;
382 [label="spon_registrar <= 10.5\nentropy = 0.67\nsamples = 285\nvalue = [50, 235]\nclass = 2", fillcolor="#399de5c9"] ;
304 -> 382 ;
383 [label="tld <= 2.0\nentropy = 0.5065\nsamples = 205\nvalue = [23, 182]\nclass = 2", fillcolor="#399de5df"] ;
382 -> 383 ;
384 [label="keyword <= 2.5\nentropy = 0.441\nsamples = 197\nvalue = [18, 179]\nclass = 2", fillcolor="#399de5e5"] ;
383 -> 384 ;
385 [label="email_type <= 6.0\nentropy = 0.4255\nsamples = 196\nvalue = [17, 179]\nclass = 2", fillcolor="#399de5e7"] ;
384 -> 385 ;
386 [label="entropy = 0.0\nsamples = 5\nvalue = [0, 5]\nclass = 2", fillcolor="#399de5ff"] ;
385 -> 386 ;
387 [label="locate_cmp <= 0.0\nentropy = 0.4331\nsamples = 191\nvalue = [17, 174]\nclass = 2", fillcolor="#399de5e6"] ;
385 -> 387 ;
388 [label="entropy = 0.4661\nsamples = 111\nvalue = [11, 100]\nclass = 2", fillcolor="#399de5e3"] ;
387 -> 388 ;
389 [label="entropy = 0.3843\nsamples = 80\nvalue = [6, 74]\nclass = 2", fillcolor="#399de5ea"] ;
387 -> 389 ;
390 [label="entropy = 0.0\nsamples = 1\nvalue = [1, 0]\nclass = 1", fillcolor="#e58139ff"] ;
384 -> 390 ;
391 [label="tld <= 10.5\nentropy = 0.9544\nsamples = 8\nvalue = [5, 3]\nclass = 1", fillcolor="#e5813966"] ;
383 -> 391 ;
392 [label="tld <= 3.5\nentropy = 0.8631\nsamples = 7\nvalue = [5, 2]\nclass = 1", fillcolor="#e5813999"] ;
391 -> 392 ;
393 [label="entropy = 0.0\nsamples = 1\nvalue = [1, 0]\nclass = 1", fillcolor="#e58139ff"] ;
392 -> 393 ;
394 [label="locate_cmp <= 0.0\nentropy = 0.9183\nsamples = 6\nvalue = [4, 2]\nclass = 1", fillcolor="#e581397f"] ;
392 -> 394 ;
395 [label="entropy = 0.9183\nsamples = 3\nvalue = [2, 1]\nclass = 1", fillcolor="#e581397f"] ;
394 -> 395 ;
396 [label="entropy = 0.9183\nsamples = 3\nvalue = [2, 1]\nclass = 1", fillcolor="#e581397f"] ;
394 -> 396 ;
397 [label="entropy = 0.0\nsamples = 1\nvalue = [0, 1]\nclass = 2", fillcolor="#399de5ff"] ;
391 -> 397 ;
398 [label="keyword <= 2.5\nentropy = 0.9224\nsamples = 80\nvalue = [27, 53]\nclass = 2", fillcolor="#399de57d"] ;
382 -> 398 ;
399 [label="tld <= 2.0\nentropy = 0.9466\nsamples = 74\nvalue = [27, 47]\nclass = 2", fillcolor="#399de56d"] ;
398 -> 399 ;
400 [label="locate_cmp <= 0.0\nentropy = 0.9558\nsamples = 69\nvalue = [26, 43]\nclass = 2", fillcolor="#399de565"] ;
399 -> 400 ;
401 [label="entropy = 0.9774\nsamples = 17\nvalue = [7, 10]\nclass = 2", fillcolor="#399de54d"] ;
400 -> 401 ;
402 [label="entropy = 0.9471\nsamples = 52\nvalue = [19, 33]\nclass = 2", fillcolor="#399de56c"] ;
400 -> 402 ;
403 [label="tld <= 3.5\nentropy = 0.7219\nsamples = 5\nvalue = [1, 4]\nclass = 2", fillcolor="#399de5bf"] ;
399 -> 403 ;
404 [label="entropy = 0.0\nsamples = 2\nvalue = [0, 2]\nclass = 2", fillcolor="#399de5ff"] ;
403 -> 404 ;
405 [label="entropy = 0.9183\nsamples = 3\nvalue = [1, 2]\nclass = 2", fillcolor="#399de57f"] ;
403 -> 405 ;
406 [label="entropy = 0.0\nsamples = 6\nvalue = [0, 6]\nclass = 2", fillcolor="#399de5ff"] ;
398 -> 406 ;
407 [label="tld <= 9.5\nentropy = 0.8874\nsamples = 1308\nvalue = [909, 399]\nclass = 1", fillcolor="#e581398f"] ;
303 -> 407 ;
408 [label="tld <= 1.5\nentropy = 0.8712\nsamples = 1271\nvalue = [900, 371]\nclass = 1", fillcolor="#e5813996"] ;
407 -> 408 ;
409 [label="keyword <= 2.5\nentropy = 0.9212\nsamples = 565\nvalue = [375, 190]\nclass = 1", fillcolor="#e581397e"] ;
408 -> 409 ;
410 [label="locate_cmp <= 0.0\nentropy = 0.9157\nsamples = 526\nvalue = [352, 174]\nclass = 1", fillcolor="#e5813981"] ;
409 -> 410 ;
411 [label="email_type <= 6.0\nentropy = 0.9321\nsamples = 207\nvalue = [135, 72]\nclass = 1", fillcolor="#e5813977"] ;
410 -> 411 ;
412 [label="entropy = 0.8905\nsamples = 26\nvalue = [18, 8]\nclass = 1", fillcolor="#e581398e"] ;
411 -> 412 ;
413 [label="entropy = 0.9372\nsamples = 181\nvalue = [117, 64]\nclass = 1", fillcolor="#e5813974"] ;
411 -> 413 ;
414 [label="email_type <= 6.0\nentropy = 0.9041\nsamples = 319\nvalue = [217, 102]\nclass = 1", fillcolor="#e5813987"] ;
410 -> 414 ;
415 [label="entropy = 0.0\nsamples = 1\nvalue = [0, 1]\nclass = 2", fillcolor="#399de5ff"] ;
414 -> 415 ;
416 [label="entropy = 0.9018\nsamples = 318\nvalue = [217, 101]\nclass = 1", fillcolor="#e5813988"] ;
414 -> 416 ;
417 [label="email_type <= 6.0\nentropy = 0.9766\nsamples = 39\nvalue = [23, 16]\nclass = 1", fillcolor="#e581394e"] ;
409 -> 417 ;
418 [label="entropy = 0.0\nsamples = 1\nvalue = [0, 1]\nclass = 2", fillcolor="#399de5ff"] ;
417 -> 418 ;
419 [label="locate_cmp <= 0.0\nentropy = 0.9678\nsamples = 38\nvalue = [23, 15]\nclass = 1", fillcolor="#e5813959"] ;
417 -> 419 ;
420 [label="entropy = 0.8113\nsamples = 12\nvalue = [9, 3]\nclass = 1", fillcolor="#e58139aa"] ;
419 -> 420 ;
421 [label="entropy = 0.9957\nsamples = 26\nvalue = [14, 12]\nclass = 1", fillcolor="#e5813924"] ;
419 -> 421 ;
422 [label="tld <= 5.5\nentropy = 0.8212\nsamples = 706\nvalue = [525, 181]\nclass = 1", fillcolor="#e58139a7"] ;
408 -> 422 ;
423 [label="tld <= 3.5\nentropy = 0.8015\nsamples = 660\nvalue = [499, 161]\nclass = 1", fillcolor="#e58139ad"] ;
422 -> 423 ;
424 [label="tld <= 2.5\nentropy = 0.8454\nsamples = 517\nvalue = [376, 141]\nclass = 1", fillcolor="#e581399f"] ;
423 -> 424 ;
425 [label="locate_cmp <= 0.0\nentropy = 0.8286\nsamples = 490\nvalue = [362, 128]\nclass = 1", fillcolor="#e58139a5"] ;
424 -> 425 ;
426 [label="keyword <= 2.5\nentropy = 0.8442\nsamples = 456\nvalue = [332, 124]\nclass = 1", fillcolor="#e58139a0"] ;
425 -> 426 ;
427 [label="entropy = 0.8517\nsamples = 440\nvalue = [318, 122]\nclass = 1", fillcolor="#e581399d"] ;
426 -> 427 ;
428 [label="entropy = 0.5436\nsamples = 16\nvalue = [14, 2]\nclass = 1", fillcolor="#e58139db"] ;
426 -> 428 ;
429 [label="keyword <= 2.5\nentropy = 0.5226\nsamples = 34\nvalue = [30, 4]\nclass = 1", fillcolor="#e58139dd"] ;
425 -> 429 ;
430 [label="entropy = 0.5328\nsamples = 33\nvalue = [29, 4]\nclass = 1", fillcolor="#e58139dc"] ;
429 -> 430 ;
431 [label="entropy = 0.0\nsamples = 1\nvalue = [1, 0]\nclass = 1", fillcolor="#e58139ff"] ;
429 -> 431 ;
432 [label="keyword <= 2.5\nentropy = 0.999\nsamples = 27\nvalue = [14, 13]\nclass = 1", fillcolor="#e5813912"] ;
424 -> 432 ;
433 [label="email_type <= 6.0\nentropy = 0.9957\nsamples = 26\nvalue = [14, 12]\nclass = 1", fillcolor="#e5813924"] ;
432 -> 433 ;
434 [label="entropy = 0.9183\nsamples = 3\nvalue = [1, 2]\nclass = 2", fillcolor="#399de57f"] ;
433 -> 434 ;
435 [label="locate_cmp <= 0.0\nentropy = 0.9877\nsamples = 23\nvalue = [13, 10]\nclass = 1", fillcolor="#e581393b"] ;
433 -> 435 ;
436 [label="entropy = 0.0\nsamples = 2\nvalue = [2, 0]\nclass = 1", fillcolor="#e58139ff"] ;
435 -> 436 ;
437 [label="entropy = 0.9984\nsamples = 21\nvalue = [11, 10]\nclass = 1", fillcolor="#e5813917"] ;
435 -> 437 ;
438 [label="entropy = 0.0\nsamples = 1\nvalue = [0, 1]\nclass = 2", fillcolor="#399de5ff"] ;
432 -> 438 ;
439 [label="keyword <= 2.5\nentropy = 0.5839\nsamples = 143\nvalue = [123, 20]\nclass = 1", fillcolor="#e58139d6"] ;
423 -> 439 ;
440 [label="tld <= 4.5\nentropy = 0.5997\nsamples = 137\nvalue = [117, 20]\nclass = 1", fillcolor="#e58139d3"] ;
439 -> 440 ;
441 [label="email_type <= 6.0\nentropy = 0.684\nsamples = 66\nvalue = [54, 12]\nclass = 1", fillcolor="#e58139c6"] ;
440 -> 441 ;
442 [label="entropy = 0.3912\nsamples = 13\nvalue = [12, 1]\nclass = 1", fillcolor="#e58139ea"] ;
441 -> 442 ;
443 [label="locate_cmp <= 0.0\nentropy = 0.7368\nsamples = 53\nvalue = [42, 11]\nclass = 1", fillcolor="#e58139bc"] ;
441 -> 443 ;
444 [label="entropy = 0.6723\nsamples = 17\nvalue = [14, 3]\nclass = 1", fillcolor="#e58139c8"] ;
443 -> 444 ;
445 [label="entropy = 0.7642\nsamples = 36\nvalue = [28, 8]\nclass = 1", fillcolor="#e58139b6"] ;
443 -> 445 ;
446 [label="locate_cmp <= 0.0\nentropy = 0.5079\nsamples = 71\nvalue = [63, 8]\nclass = 1", fillcolor="#e58139df"] ;
440 -> 446 ;
447 [label="entropy = 0.65\nsamples = 18\nvalue = [15, 3]\nclass = 1", fillcolor="#e58139cc"] ;
446 -> 447 ;
448 [label="entropy = 0.4508\nsamples = 53\nvalue = [48, 5]\nclass = 1", fillcolor="#e58139e4"] ;
446 -> 448 ;
449 [label="entropy = 0.0\nsamples = 6\nvalue = [6, 0]\nclass = 1", fillcolor="#e58139ff"] ;
439 -> 449 ;
450 [label="locate_cmp <= 0.0\nentropy = 0.9877\nsamples = 46\nvalue = [26, 20]\nclass = 1", fillcolor="#e581393b"] ;
422 -> 450 ;
451 [label="tld <= 7.5\nentropy = 0.7496\nsamples = 14\nvalue = [3, 11]\nclass = 2", fillcolor="#399de5b9"] ;
450 -> 451 ;
452 [label="tld <= 6.5\nentropy = 0.8454\nsamples = 11\nvalue = [3, 8]\nclass = 2", fillcolor="#399de59f"] ;
451 -> 452 ;
453 [label="keyword <= 2.5\nentropy = 0.7219\nsamples = 10\nvalue = [2, 8]\nclass = 2", fillcolor="#399de5bf"] ;
452 -> 453 ;
454 [label="entropy = 0.5917\nsamples = 7\nvalue = [1, 6]\nclass = 2", fillcolor="#399de5d4"] ;
453 -> 454 ;
455 [label="entropy = 0.9183\nsamples = 3\nvalue = [1, 2]\nclass = 2", fillcolor="#399de57f"] ;
453 -> 455 ;
456 [label="entropy = 0.0\nsamples = 1\nvalue = [1, 0]\nclass = 1", fillcolor="#e58139ff"] ;
452 -> 456 ;
457 [label="entropy = 0.0\nsamples = 3\nvalue = [0, 3]\nclass = 2", fillcolor="#399de5ff"] ;
451 -> 457 ;
458 [label="tld <= 7.5\nentropy = 0.8571\nsamples = 32\nvalue = [23, 9]\nclass = 1", fillcolor="#e581399b"] ;
450 -> 458 ;
459 [label="keyword <= 2.5\nentropy = 0.9641\nsamples = 18\nvalue = [11, 7]\nclass = 1", fillcolor="#e581395d"] ;
458 -> 459 ;
460 [label="tld <= 6.5\nentropy = 0.8813\nsamples = 10\nvalue = [7, 3]\nclass = 1", fillcolor="#e5813992"] ;
459 -> 460 ;
461 [label="entropy = 0.8631\nsamples = 7\nvalue = [5, 2]\nclass = 1", fillcolor="#e5813999"] ;
460 -> 461 ;
462 [label="entropy = 0.9183\nsamples = 3\nvalue = [2, 1]\nclass = 1", fillcolor="#e581397f"] ;
460 -> 462 ;
463 [label="tld <= 6.5\nentropy = 1.0\nsamples = 8\nvalue = [4, 4]\nclass = 1", fillcolor="#e5813900"] ;
459 -> 463 ;
464 [label="entropy = 1.0\nsamples = 6\nvalue = [3, 3]\nclass = 1", fillcolor="#e5813900"] ;
463 -> 464 ;
465 [label="entropy = 1.0\nsamples = 2\nvalue = [1, 1]\nclass = 1", fillcolor="#e5813900"] ;
463 -> 465 ;
466 [label="tld <= 8.5\nentropy = 0.5917\nsamples = 14\nvalue = [12, 2]\nclass = 1", fillcolor="#e58139d4"] ;
458 -> 466 ;
467 [label="entropy = 0.0\nsamples = 5\nvalue = [5, 0]\nclass = 1", fillcolor="#e58139ff"] ;
466 -> 467 ;
468 [label="entropy = 0.7642\nsamples = 9\nvalue = [7, 2]\nclass = 1", fillcolor="#e58139b6"] ;
466 -> 468 ;
469 [label="locate_cmp <= 0.0\nentropy = 0.8004\nsamples = 37\nvalue = [9, 28]\nclass = 2", fillcolor="#399de5ad"] ;
407 -> 469 ;
470 [label="entropy = 0.0\nsamples = 17\nvalue = [0, 17]\nclass = 2", fillcolor="#399de5ff"] ;
469 -> 470 ;
471 [label="tld <= 14.0\nentropy = 0.9928\nsamples = 20\nvalue = [9, 11]\nclass = 2", fillcolor="#399de52e"] ;
469 -> 471 ;
472 [label="tld <= 11.0\nentropy = 0.7642\nsamples = 9\nvalue = [2, 7]\nclass = 2", fillcolor="#399de5b6"] ;
471 -> 472 ;
473 [label="entropy = 0.8113\nsamples = 8\nvalue = [2, 6]\nclass = 2", fillcolor="#399de5aa"] ;
472 -> 473 ;
474 [label="entropy = 0.0\nsamples = 1\nvalue = [0, 1]\nclass = 2", fillcolor="#399de5ff"] ;
472 -> 474 ;
475 [label="email_type <= 6.0\nentropy = 0.9457\nsamples = 11\nvalue = [7, 4]\nclass = 1", fillcolor="#e581396d"] ;
471 -> 475 ;
476 [label="entropy = 0.0\nsamples = 1\nvalue = [1, 0]\nclass = 1", fillcolor="#e58139ff"] ;
475 -> 476 ;
477 [label="entropy = 0.971\nsamples = 10\nvalue = [6, 4]\nclass = 1", fillcolor="#e5813955"] ;
475 -> 477 ;
478 [label="spon_registrar <= 1.5\nentropy = 0.778\nsamples = 861\nvalue = [198, 663]\nclass = 2", fillcolor="#399de5b3"] ;
268 -> 478 ;
479 [label="locate_cmp <= 0.0\nentropy = 0.6409\nsamples = 43\nvalue = [36, 7]\nclass = 1", fillcolor="#e58139cd"] ;
478 -> 479 ;
480 [label="tld <= 2.0\nentropy = 0.4138\nsamples = 36\nvalue = [33, 3]\nclass = 1", fillcolor="#e58139e8"] ;
479 -> 480 ;
481 [label="keyword <= 4.5\nentropy = 0.2108\nsamples = 30\nvalue = [29, 1]\nclass = 1", fillcolor="#e58139f6"] ;
480 -> 481 ;
482 [label="entropy = 0.2164\nsamples = 29\nvalue = [28, 1]\nclass = 1", fillcolor="#e58139f6"] ;
481 -> 482 ;
483 [label="entropy = 0.0\nsamples = 1\nvalue = [1, 0]\nclass = 1", fillcolor="#e58139ff"] ;
481 -> 483 ;
484 [label="tld <= 3.5\nentropy = 0.9183\nsamples = 6\nvalue = [4, 2]\nclass = 1", fillcolor="#e581397f"] ;
480 -> 484 ;
485 [label="entropy = 0.0\nsamples = 1\nvalue = [0, 1]\nclass = 2", fillcolor="#399de5ff"] ;
484 -> 485 ;
486 [label="entropy = 0.7219\nsamples = 5\nvalue = [4, 1]\nclass = 1", fillcolor="#e58139bf"] ;
484 -> 486 ;
487 [label="tld <= 2.0\nentropy = 0.9852\nsamples = 7\nvalue = [3, 4]\nclass = 2", fillcolor="#399de540"] ;
479 -> 487 ;
488 [label="entropy = 0.9183\nsamples = 6\nvalue = [2, 4]\nclass = 2", fillcolor="#399de57f"] ;
487 -> 488 ;
489 [label="entropy = 0.0\nsamples = 1\nvalue = [1, 0]\nclass = 1", fillcolor="#e58139ff"] ;
487 -> 489 ;
490 [label="spon_registrar <= 2.5\nentropy = 0.718\nsamples = 818\nvalue = [162, 656]\nclass = 2", fillcolor="#399de5c0"] ;
478 -> 490 ;
491 [label="tld <= 2.0\nentropy = 0.974\nsamples = 37\nvalue = [15, 22]\nclass = 2", fillcolor="#399de551"] ;
490 -> 491 ;
492 [label="entropy = 0.99\nsamples = 34\nvalue = [15, 19]\nclass = 2", fillcolor="#399de536"] ;
491 -> 492 ;
493 [label="entropy = 0.0\nsamples = 3\nvalue = [0, 3]\nclass = 2", fillcolor="#399de5ff"] ;
491 -> 493 ;
494 [label="tld <= 2.5\nentropy = 0.6977\nsamples = 781\nvalue = [147, 634]\nclass = 2", fillcolor="#399de5c4"] ;
490 -> 494 ;
495 [label="tld <= 1.5\nentropy = 0.7243\nsamples = 681\nvalue = [137, 544]\nclass = 2", fillcolor="#399de5bf"] ;
494 -> 495 ;
496 [label="spon_registrar <= 9.5\nentropy = 0.6828\nsamples = 640\nvalue = [116, 524]\nclass = 2", fillcolor="#399de5c7"] ;
495 -> 496 ;
497 [label="spon_registrar <= 8.5\nentropy = 0.7539\nsamples = 277\nvalue = [60, 217]\nclass = 2", fillcolor="#399de5b8"] ;
496 -> 497 ;
498 [label="spon_registrar <= 6.5\nentropy = 0.7353\nsamples = 266\nvalue = [55, 211]\nclass = 2", fillcolor="#399de5bd"] ;
497 -> 498 ;
499 [label="locate_cmp <= 0.0\nentropy = 0.6918\nsamples = 151\nvalue = [28, 123]\nclass = 2", fillcolor="#399de5c5"] ;
498 -> 499 ;
500 [label="spon_registrar <= 3.5\nentropy = 0.7698\nsamples = 71\nvalue = [16, 55]\nclass = 2", fillcolor="#399de5b5"] ;
499 -> 500 ;
501 [label="entropy = 0.7219\nsamples = 60\nvalue = [12, 48]\nclass = 2", fillcolor="#399de5bf"] ;
500 -> 501 ;
502 [label="entropy = 0.9457\nsamples = 11\nvalue = [4, 7]\nclass = 2", fillcolor="#399de56d"] ;
500 -> 502 ;
503 [label="spon_registrar <= 3.5\nentropy = 0.6098\nsamples = 80\nvalue = [12, 68]\nclass = 2", fillcolor="#399de5d2"] ;
499 -> 503 ;
504 [label="entropy = 0.0\nsamples = 2\nvalue = [0, 2]\nclass = 2", fillcolor="#399de5ff"] ;
503 -> 504 ;
505 [label="spon_registrar <= 5.0\nentropy = 0.6194\nsamples = 78\nvalue = [12, 66]\nclass = 2", fillcolor="#399de5d1"] ;
503 -> 505 ;
506 [label="entropy = 0.5665\nsamples = 15\nvalue = [2, 13]\nclass = 2", fillcolor="#399de5d8"] ;
505 -> 506 ;
507 [label="entropy = 0.6313\nsamples = 63\nvalue = [10, 53]\nclass = 2", fillcolor="#399de5cf"] ;
505 -> 507 ;
508 [label="spon_registrar <= 7.5\nentropy = 0.7863\nsamples = 115\nvalue = [27, 88]\nclass = 2", fillcolor="#399de5b1"] ;
498 -> 508 ;
509 [label="locate_cmp <= 0.0\nentropy = 0.7902\nsamples = 97\nvalue = [23, 74]\nclass = 2", fillcolor="#399de5b0"] ;
508 -> 509 ;
510 [label="entropy = 0.0\nsamples = 2\nvalue = [0, 2]\nclass = 2", fillcolor="#399de5ff"] ;
509 -> 510 ;
511 [label="entropy = 0.7985\nsamples = 95\nvalue = [23, 72]\nclass = 2", fillcolor="#399de5ae"] ;
509 -> 511 ;
512 [label="locate_cmp <= 0.0\nentropy = 0.7642\nsamples = 18\nvalue = [4, 14]\nclass = 2", fillcolor="#399de5b6"] ;
508 -> 512 ;
513 [label="entropy = 1.0\nsamples = 2\nvalue = [1, 1]\nclass = 1", fillcolor="#e5813900"] ;
512 -> 513 ;
514 [label="entropy = 0.6962\nsamples = 16\nvalue = [3, 13]\nclass = 2", fillcolor="#399de5c4"] ;
512 -> 514 ;
515 [label="entropy = 0.994\nsamples = 11\nvalue = [5, 6]\nclass = 2", fillcolor="#399de52a"] ;
497 -> 515 ;
516 [label="spon_registrar <= 11.5\nentropy = 0.6204\nsamples = 363\nvalue = [56, 307]\nclass = 2", fillcolor="#399de5d0"] ;
496 -> 516 ;
517 [label="spon_registrar <= 10.5\nentropy = 0.3934\nsamples = 129\nvalue = [10, 119]\nclass = 2", fillcolor="#399de5ea"] ;
516 -> 517 ;
518 [label="locate_cmp <= 0.0\nentropy = 0.6194\nsamples = 26\nvalue = [4, 22]\nclass = 2", fillcolor="#399de5d1"] ;
517 -> 518 ;
519 [label="email_type <= 6.0\nentropy = 0.5226\nsamples = 17\nvalue = [2, 15]\nclass = 2", fillcolor="#399de5dd"] ;
518 -> 519 ;
520 [label="entropy = 0.0\nsamples = 1\nvalue = [0, 1]\nclass = 2", fillcolor="#399de5ff"] ;
519 -> 520 ;
521 [label="entropy = 0.5436\nsamples = 16\nvalue = [2, 14]\nclass = 2", fillcolor="#399de5db"] ;
519 -> 521 ;
522 [label="entropy = 0.7642\nsamples = 9\nvalue = [2, 7]\nclass = 2", fillcolor="#399de5b6"] ;
518 -> 522 ;
523 [label="locate_cmp <= 0.0\nentropy = 0.3205\nsamples = 103\nvalue = [6, 97]\nclass = 2", fillcolor="#399de5ef"] ;
517 -> 523 ;
524 [label="entropy = 0.0\nsamples = 1\nvalue = [0, 1]\nclass = 2", fillcolor="#399de5ff"] ;
523 -> 524 ;
525 [label="entropy = 0.3228\nsamples = 102\nvalue = [6, 96]\nclass = 2", fillcolor="#399de5ef"] ;
523 -> 525 ;
526 [label="email_type <= 6.0\nentropy = 0.715\nsamples = 234\nvalue = [46, 188]\nclass = 2", fillcolor="#399de5c1"] ;
516 -> 526 ;
527 [label="locate_cmp <= 0.0\nentropy = 0.3373\nsamples = 16\nvalue = [1, 15]\nclass = 2", fillcolor="#399de5ee"] ;
526 -> 527 ;
528 [label="entropy = 0.3912\nsamples = 13\nvalue = [1, 12]\nclass = 2", fillcolor="#399de5ea"] ;
527 -> 528 ;
529 [label="entropy = 0.0\nsamples = 3\nvalue = [0, 3]\nclass = 2", fillcolor="#399de5ff"] ;
527 -> 529 ;
530 [label="locate_cmp <= 0.0\nentropy = 0.7346\nsamples = 218\nvalue = [45, 173]\nclass = 2", fillcolor="#399de5bd"] ;
526 -> 530 ;
531 [label="entropy = 0.6024\nsamples = 34\nvalue = [5, 29]\nclass = 2", fillcolor="#399de5d3"] ;
530 -> 531 ;
532 [label="entropy = 0.7554\nsamples = 184\nvalue = [40, 144]\nclass = 2", fillcolor="#399de5b8"] ;
530 -> 532 ;
533 [label="locate_cmp <= 0.0\nentropy = 0.9996\nsamples = 41\nvalue = [21, 20]\nclass = 1", fillcolor="#e581390c"] ;
495 -> 533 ;
534 [label="entropy = 0.9995\nsamples = 39\nvalue = [19, 20]\nclass = 2", fillcolor="#399de50d"] ;
533 -> 534 ;
535 [label="entropy = 0.0\nsamples = 2\nvalue = [2, 0]\nclass = 1", fillcolor="#e58139ff"] ;
533 -> 535 ;
536 [label="tld <= 8.0\nentropy = 0.469\nsamples = 100\nvalue = [10, 90]\nclass = 2", fillcolor="#399de5e3"] ;
494 -> 536 ;
537 [label="keyword <= 4.5\nentropy = 0.5108\nsamples = 88\nvalue = [10, 78]\nclass = 2", fillcolor="#399de5de"] ;
536 -> 537 ;
538 [label="tld <= 6.5\nentropy = 0.4836\nsamples = 86\nvalue = [9, 77]\nclass = 2", fillcolor="#399de5e1"] ;
537 -> 538 ;
539 [label="tld <= 4.5\nentropy = 0.4537\nsamples = 84\nvalue = [8, 76]\nclass = 2", fillcolor="#399de5e4"] ;
538 -> 539 ;
540 [label="tld <= 3.5\nentropy = 0.4812\nsamples = 77\nvalue = [8, 69]\nclass = 2", fillcolor="#399de5e1"] ;
539 -> 540 ;
541 [label="spon_registrar <= 11.5\nentropy = 0.3228\nsamples = 34\nvalue = [2, 32]\nclass = 2", fillcolor="#399de5ef"] ;
540 -> 541 ;
542 [label="entropy = 0.0\nsamples = 13\nvalue = [0, 13]\nclass = 2", fillcolor="#399de5ff"] ;
541 -> 542 ;
543 [label="email_type <= 6.0\nentropy = 0.4537\nsamples = 21\nvalue = [2, 19]\nclass = 2", fillcolor="#399de5e4"] ;
541 -> 543 ;
544 [label="entropy = 0.0\nsamples = 3\nvalue = [0, 3]\nclass = 2", fillcolor="#399de5ff"] ;
543 -> 544 ;
545 [label="entropy = 0.5033\nsamples = 18\nvalue = [2, 16]\nclass = 2", fillcolor="#399de5df"] ;
543 -> 545 ;
546 [label="spon_registrar <= 11.5\nentropy = 0.583\nsamples = 43\nvalue = [6, 37]\nclass = 2", fillcolor="#399de5d6"] ;
540 -> 546 ;
547 [label="spon_registrar <= 10.5\nentropy = 0.4587\nsamples = 31\nvalue = [3, 28]\nclass = 2", fillcolor="#399de5e4"] ;
546 -> 547 ;
548 [label="spon_registrar <= 5.0\nentropy = 0.5159\nsamples = 26\nvalue = [3, 23]\nclass = 2", fillcolor="#399de5de"] ;
547 -> 548 ;
549 [label="locate_cmp <= 0.0\nentropy = 0.8113\nsamples = 4\nvalue = [1, 3]\nclass = 2", fillcolor="#399de5aa"] ;
548 -> 549 ;
550 [label="entropy = 0.0\nsamples = 2\nvalue = [0, 2]\nclass = 2", fillcolor="#399de5ff"] ;
549 -> 550 ;
551 [label="entropy = 1.0\nsamples = 2\nvalue = [1, 1]\nclass = 1", fillcolor="#e5813900"] ;
549 -> 551 ;
552 [label="spon_registrar <= 6.5\nentropy = 0.4395\nsamples = 22\nvalue = [2, 20]\nclass = 2", fillcolor="#399de5e6"] ;
548 -> 552 ;
553 [label="entropy = 0.0\nsamples = 3\nvalue = [0, 3]\nclass = 2", fillcolor="#399de5ff"] ;
552 -> 553 ;
554 [label="spon_registrar <= 7.5\nentropy = 0.4855\nsamples = 19\nvalue = [2, 17]\nclass = 2", fillcolor="#399de5e1"] ;
552 -> 554 ;
555 [label="entropy = 0.65\nsamples = 6\nvalue = [1, 5]\nclass = 2", fillcolor="#399de5cc"] ;
554 -> 555 ;
556 [label="spon_registrar <= 9.0\nentropy = 0.3912\nsamples = 13\nvalue = [1, 12]\nclass = 2", fillcolor="#399de5ea"] ;
554 -> 556 ;
557 [label="entropy = 0.0\nsamples = 7\nvalue = [0, 7]\nclass = 2", fillcolor="#399de5ff"] ;
556 -> 557 ;
558 [label="entropy = 0.65\nsamples = 6\nvalue = [1, 5]\nclass = 2", fillcolor="#399de5cc"] ;
556 -> 558 ;
559 [label="entropy = 0.0\nsamples = 5\nvalue = [0, 5]\nclass = 2", fillcolor="#399de5ff"] ;
547 -> 559 ;
560 [label="locate_cmp <= 0.0\nentropy = 0.8113\nsamples = 12\nvalue = [3, 9]\nclass = 2", fillcolor="#399de5aa"] ;
546 -> 560 ;
561 [label="entropy = 0.0\nsamples = 3\nvalue = [0, 3]\nclass = 2", fillcolor="#399de5ff"] ;
560 -> 561 ;
562 [label="entropy = 0.9183\nsamples = 9\nvalue = [3, 6]\nclass = 2", fillcolor="#399de57f"] ;
560 -> 562 ;
563 [label="entropy = 0.0\nsamples = 7\nvalue = [0, 7]\nclass = 2", fillcolor="#399de5ff"] ;
539 -> 563 ;
564 [label="locate_cmp <= 0.0\nentropy = 1.0\nsamples = 2\nvalue = [1, 1]\nclass = 1", fillcolor="#e5813900"] ;
538 -> 564 ;
565 [label="entropy = 0.0\nsamples = 1\nvalue = [0, 1]\nclass = 2", fillcolor="#399de5ff"] ;
564 -> 565 ;
566 [label="entropy = 0.0\nsamples = 1\nvalue = [1, 0]\nclass = 1", fillcolor="#e58139ff"] ;
564 -> 566 ;
567 [label="locate_cmp <= 0.0\nentropy = 1.0\nsamples = 2\nvalue = [1, 1]\nclass = 1", fillcolor="#e5813900"] ;
537 -> 567 ;
568 [label="entropy = 0.0\nsamples = 1\nvalue = [0, 1]\nclass = 2", fillcolor="#399de5ff"] ;
567 -> 568 ;
569 [label="entropy = 0.0\nsamples = 1\nvalue = [1, 0]\nclass = 1", fillcolor="#e58139ff"] ;
567 -> 569 ;
570 [label="entropy = 0.0\nsamples = 12\nvalue = [0, 12]\nclass = 2", fillcolor="#399de5ff"] ;
536 -> 570 ;
}